<?xml version="1.0" encoding="ISO-8859-1"?>
<!-- This network was created in GeNIe Academic, which can be used for educational and research purposes only -->
<smile version="1.0" id="Unnamed" numsamples="10000" discsamples="10000">
	<nodes>
		<cpt id="OA_MAIS">
			<state id="s1_below_1" />
			<state id="s2_1_3" />
			<state id="s3_3_4" />
			<state id="s4_4_5" />
			<state id="s5_5_up" />
			<probabilities>0.840095813372214 0.1284732347427619 0.01568423245157258 0.01131014372005832 0.004436575713393042</probabilities>
		</cpt>
		<cpt id="GV_CURBWGT">
			<state id="s01_below_885" />
			<state id="s02_885_1255" />
			<state id="s03_1255_1695" />
			<state id="s04_1695_2075" />
			<state id="s05_2075_2555" />
			<state id="s06_2555_2795" />
			<state id="s07_2795_3165" />
			<state id="s08_3165_3715" />
			<state id="s09_3715_4095" />
			<state id="s10_4095_up" />
			<parents>OA_MAIS</parents>
			<probabilities>0.0008739308293045741 0.1733668030246684 0.4775691087145159 0.216071649931821 0.1034523366803024 0.01878641378455436 0.007629850006198089 0.001741663567621173 0.0003780835502665178 0.0001301599107474898 4.051863857374393e-05 0.2087115072933549 0.4834278768233387 0.1920988654781199 0.09120745542949756 0.01624797406807131 0.005307941653160454 0.00206645056726094 4.051863857374393e-05 0.0008508914100486223 0.003642384105960265 0.2254966887417218 0.4804635761589404 0.2056291390728477 0.06324503311258278 0.02019867549668874 0.0003311258278145696 0.0003311258278145696 0.0003311258278145696 0.0003311258278145696 0.0004587155963302754 0.2160550458715597 0.5555045871559633 0.1793577981651376 0.03256880733944954 0.005045871559633028 0.00963302752293578 0.0004587155963302754 0.0004587155963302754 0.0004587155963302754 0.001162790697674419 0.1755813953488372 0.5476744186046512 0.1523255813953488 0.07093023255813953 0.04767441860465116 0.001162790697674419 0.001162790697674419 0.001162790697674419 0.001162790697674419</probabilities>
		</cpt>
		<cpt id="GV_DVLAT">
			<state id="s01_below_n103" />
			<state id="s02_n103_n76" />
			<state id="s03_n76_n53" />
			<state id="s04_n53_n24" />
			<state id="s05_n24_n6" />
			<state id="s06_n6_21" />
			<state id="s07_21_37" />
			<state id="s08_37_57" />
			<state id="s09_57_99" />
			<state id="s10_99_up" />
			<parents>OA_MAIS</parents>
			<probabilities>6.817900086773274e-05 0.0001301599107474898 0.0003780835502665178 0.0200260319821495 0.1813003594892773 0.7691892896987728 0.02603818024048593 0.0024234535762985 0.0003161026403867608 0.0001301599107474898 0.0004457050243111832 0.00206645056726094 0.004497568881685575 0.04420583468395461 0.1734602917341977 0.6771069692058346 0.07864667747163695 0.01705834683954619 0.002471636952998379 4.051863857374393e-05 0.0003311258278145696 0.0003311258278145696 0.006953642384105961 0.1062913907284768 0.09966887417218544 0.5599337748344371 0.1592715231788079 0.05662251655629139 0.01026490066225166 0.0003311258278145696 0.0004587155963302754 0.0004587155963302754 0.02339449541284404 0.1243119266055046 0.09220183486238533 0.5142201834862385 0.1564220183486239 0.07385321100917432 0.01422018348623853 0.0004587155963302754 0.001162790697674419 0.03604651162790698 0.05930232558139534 0.07093023255813953 0.0941860465116279 0.5941860465116279 0.0941860465116279 0.04767441860465116 0.001162790697674419 0.001162790697674419</probabilities>
		</cpt>
		<cpt id="GV_DVLONG">
			<state id="s01_below_n139" />
			<state id="s02_n139_n112" />
			<state id="s03_n112_n81" />
			<state id="s04_n81_n54" />
			<state id="s05_n54_n24" />
			<state id="s06_n24_1" />
			<state id="s07_1_25" />
			<state id="s08_25_41" />
			<state id="s09_41_71" />
			<state id="s10_71_up" />
			<parents>OA_MAIS</parents>
			<probabilities>0.0001301599107474898 0.0001301599107474898 0.0003161026403867608 0.006514193628362463 0.1726230321061113 0.6880562786661708 0.09173794471302837 0.03130655758026528 0.009055410933432501 0.0001301599107474898 4.051863857374393e-05 0.0004457050243111832 0.004092382495948136 0.05474068071312804 0.345259319286872 0.5292139384116693 0.03853322528363046 0.01543760129659643 0.01179092382495948 0.0004457050243111832 0.0003311258278145696 0.003642384105960265 0.02682119205298013 0.08973509933774836 0.3182119205298013 0.4572847682119205 0.06655629139072848 0.01688741721854305 0.02019867549668874 0.0003311258278145696 0.005045871559633028 0.00963302752293578 0.03256880733944954 0.1426605504587156 0.2802752293577982 0.4041284403669725 0.08302752293577982 0.01880733944954129 0.01880733944954129 0.005045871559633028 0.001162790697674419 0.001162790697674419 0.1058139534883721 0.2453488372093023 0.2569767441860465 0.3034883720930233 0.07093023255813953 0.001162790697674419 0.01279069767441861 0.001162790697674419</probabilities>
		</cpt>
		<cpt id="GV_ENERGY">
			<state id="s01_below_742" />
			<state id="s02_742_1982" />
			<state id="s03_1982_2717" />
			<state id="s04_2717_3770" />
			<state id="s05_3770_4674" />
			<state id="s06_4674_6056" />
			<state id="s07_6056_6970" />
			<state id="s08_6970_8231" />
			<state id="s09_8231_9249" />
			<state id="s10_9249_up" />
			<parents>OA_MAIS</parents>
			<probabilities>0.8723255237386884 0.1162823850254122 0.007319945456799305 0.002609396305937771 0.0006260071897855459 0.0008119499194248171 6.198090987975704e-06 6.198090987975704e-06 6.198090987975704e-06 6.198090987975704e-06 0.5932333873581846 0.3132495948136143 0.0450162074554295 0.03123987034035656 0.006928687196110211 0.005713128038897892 0.002876823338735818 0.001256077795786062 0.0004457050243111832 4.051863857374393e-05 0.3314569536423841 0.4341059602649007 0.08973509933774836 0.05662251655629139 0.0533112582781457 0.01357615894039735 0.01357615894039735 0.003642384105960265 0.003642384105960265 0.0003311258278145696 0.2573394495412844 0.3399082568807339 0.09678899082568808 0.1243119266055046 0.08761467889908257 0.06009174311926606 0.01422018348623853 0.005045871559633028 0.005045871559633028 0.00963302752293578 0.07093023255813953 0.2453488372093023 0.0941860465116279 0.1988372093023256 0.1755813953488372 0.163953488372093 0.01279069767441861 0.001162790697674419 0.01279069767441861 0.02441860465116279</probabilities>
		</cpt>
		<cpt id="GV_LANES">
			<state id="s1_below_2" />
			<state id="s2_2_4" />
			<state id="s3_4_6" />
			<state id="s4_6_up" />
			<parents>OA_MAIS</parents>
			<probabilities>0.3926025784058511 0.3915489029378952 0.1955032849882236 0.02034523366803025 0.4441855753646677 0.365984602917342 0.1678484602917342 0.02198136142625608 0.5240066225165563 0.3485099337748344 0.1167218543046358 0.01076158940397351 0.5011467889908258 0.3864678899082569 0.106651376146789 0.005733944954128441 0.4680232558139535 0.3982558139534884 0.08430232558139535 0.04941860465116279</probabilities>
		</cpt>
		<cpt id="GV_MODELYR">
			<state id="s1_below_2001" />
			<state id="s2_2001_2003" />
			<state id="s3_2003_2005" />
			<state id="s4_2005_2007" />
			<state id="s5_2007_2009" />
			<state id="s6_2009_2011" />
			<state id="s7_2011_up" />
			<parents>OA_MAIS</parents>
			<probabilities>0.2651631868812977 0.25691972586729 0.2091324443499974 0.1560148045830456 0.08548052913988206 0.02666064566399264 0.0006286635144946785 0.3177240101875433 0.2776105579995369 0.1819865709655012 0.1366056957629081 0.06610326464459364 0.01991201667052558 5.788376939106274e-05 0.2852412488174077 0.3017975402081362 0.1925260170293283 0.1395458845789972 0.05014191106906338 0.03027436140018921 0.0004730368968779565 0.3401048492791612 0.2988204456094364 0.2070773263433814 0.1107470511140236 0.0235910878112713 0.01900393184796855 0.0006553079947575362 0.292358803986711 0.2458471760797342 0.2109634551495017 0.1528239202657807 0.07142857142857144 0.02491694352159469 0.001661129568106313</probabilities>
		</cpt>
		<cpt id="GV_OTVEHWGT">
			<state id="s01_below_760" />
			<state id="s02_760_1355" />
			<state id="s03_1355_1655" />
			<state id="s04_1655_1995" />
			<state id="s05_1995_2255" />
			<state id="s06_2255_2835" />
			<state id="s07_2835_3320" />
			<state id="s08_3320_3730" />
			<state id="s09_3730_4215" />
			<state id="s10_4215_up" />
			<parents>OA_MAIS</parents>
			<probabilities>0.0007499690095450598 0.2659043014751456 0.344620057022437 0.2315048964918804 0.07952770546671623 0.06911491260691704 0.007010040907400518 0.0005640262799057888 0.0006879880996653029 0.0003161026403867607 0.0004457050243111832 0.1977714748784441 0.351742301458671 0.2330226904376013 0.1061993517017828 0.09525931928687195 0.01219611021069692 0.001661264181523501 0.0008508914100486223 0.0008508914100486223 0.0003311258278145696 0.1493377483443709 0.2552980132450331 0.3049668874172185 0.1228476821192053 0.1360927152317881 0.01357615894039735 0.003642384105960265 0.003642384105960265 0.01026490066225166 0.0004587155963302754 0.1059633027522936 0.3077981651376147 0.3032110091743119 0.1243119266055046 0.1334862385321101 0.01880733944954129 0.0004587155963302754 0.005045871559633028 0.0004587155963302754 0.001162790697674419 0.1174418604651163 0.3267441860465116 0.2453488372093023 0.1290697674418605 0.1406976744186046 0.03604651162790698 0.001162790697674419 0.001162790697674419 0.001162790697674419</probabilities>
		</cpt>
		<cpt id="GV_SPLIMIT">
			<state id="s1_below_17" />
			<state id="s2_17_37" />
			<state id="s3_37_57" />
			<state id="s4_57_up" />
			<parents>OA_MAIS</parents>
			<probabilities>0.009808478988471552 0.4591700756167101 0.4685291930085534 0.06249225238626504 0.007799837925445705 0.3667949756888169 0.5402147487844409 0.08519043760129659 0.0173841059602649 0.3451986754966888 0.5339403973509934 0.103476821192053 0.01490825688073395 0.2855504587155964 0.5928899082568808 0.106651376146789 0.002906976744186046 0.2005813953488372 0.688953488372093 0.1075581395348837</probabilities>
		</cpt>
		<cpt id="OA_AGE">
			<state id="s1_below_11" />
			<state id="s2_11_28" />
			<state id="s3_28_44" />
			<state id="s4_44_56" />
			<state id="s5_56_64" />
			<state id="s6_64_76" />
			<state id="s7_76_up" />
			<parents>OA_MAIS</parents>
			<probabilities>0.0001328162354566222 0.3327843595601127 0.3104092510935204 0.1801873594361508 0.07990224725070393 0.06353928704244807 0.03304467938160761 5.788376939106274e-05 0.2901713359573975 0.2820676082426487 0.1904954850659875 0.09325075248900207 0.08352627923130353 0.06043065524426949 0.0004730368968779565 0.2753074739829707 0.2123935666982024 0.1660359508041627 0.1130558183538316 0.119678334910123 0.1130558183538316 0.0006553079947575362 0.2621231979030145 0.2208387942332897 0.1887287024901704 0.06487549148099607 0.1199213630406291 0.1428571428571428 0.001661129568106313 0.2458471760797342 0.2574750830564784 0.2109634551495017 0.1295681063122924 0.05980066445182725 0.09468438538205981</probabilities>
		</cpt>
		<cpt id="OA_HEIGHT">
			<state id="s1_below_97" />
			<state id="s2_97_138" />
			<state id="s3_138_171" />
			<state id="s4_171_186" />
			<state id="s5_186_208" />
			<state id="s6_208_up" />
			<parents>OA_MAIS</parents>
			<probabilities>0.001125986529482253 0.001064005619602496 0.5296991859840503 0.4038779389281436 0.06403661005743566 0.0001962728812858973 0.001283090221501891 0.0008779038357644515 0.5349135602377093 0.4093057806591032 0.05355213398163154 6.75310642895732e-05 0.003863134657836645 0.0005518763796909493 0.4740618101545254 0.4740618101545254 0.04690949227373068 0.0005518763796909493 0.0007645259938837922 0.0007645259938837922 0.4961773700305811 0.4365443425076453 0.06498470948012232 0.0007645259938837922 0.001937984496124031 0.001937984496124031 0.4903100775193798 0.4321705426356589 0.07170542635658915 0.001937984496124031</probabilities>
		</cpt>
		<cpt id="OA_WEIGHT">
			<state id="s1_below_62" />
			<state id="s2_62_80" />
			<state id="s3_80_96" />
			<state id="s4_96_114" />
			<state id="s5_114_130" />
			<state id="s6_130_up" />
			<parents>OA_MAIS</parents>
			<probabilities>0.2165716292715177 0.3669992975496881 0.2584707243502335 0.1132494525019627 0.02715796867898021 0.01755092764761787 0.1957725553754728 0.3477174500270125 0.2678957320367369 0.1183819556996219 0.03977579686655863 0.03045650999459752 0.1793598233995585 0.3383002207505518 0.2522075055187638 0.1561810154525386 0.04028697571743928 0.03366445916114789 0.2025993883792049 0.3356269113149847 0.2209480122324159 0.1475535168195719 0.02828746177370031 0.06498470948012232 0.1298449612403101 0.2926356589147286 0.2112403100775194 0.1996124031007752 0.07170542635658914 0.09496124031007749</probabilities>
		</cpt>
		<cpt id="VE_ORIGAVTW">
			<state id="s1_below_116" />
			<state id="s2_116_141" />
			<state id="s3_141_151" />
			<state id="s4_151_159" />
			<state id="s5_159_169" />
			<state id="s6_169_179" />
			<state id="s7_179_up" />
			<parents>OA_MAIS</parents>
			<probabilities>8.85441569710815e-06 0.009677876356939206 0.3652003754272256 0.4079672032442579 0.1492588854061521 0.06620446616727763 0.001682338982450548 0.0004630701551285018 0.01383422088446399 0.3991664737207686 0.4056494558925676 0.1280967816624218 0.05232692752952071 0.0004630701551285018 0.0004730368968779565 0.02034058656575213 0.4077578051087984 0.3746452223273415 0.1726584673604541 0.02365184484389782 0.0004730368968779565 0.0006553079947575362 0.01441677588466579 0.4226736566186107 0.4226736566186107 0.1153342070773263 0.0235910878112713 0.0006553079947575362 0.001661129568106313 0.03654485049833887 0.420265780730897 0.3504983388704319 0.1528239202657807 0.03654485049833887 0.001661129568106313</probabilities>
		</cpt>
		<cpt id="VE_WHEELBAS">
			<state id="s1_below_164" />
			<state id="s2_164_234" />
			<state id="s3_234_318" />
			<state id="s4_318_375" />
			<state id="s5_375_464" />
			<state id="s6_464_up" />
			<parents>OA_MAIS</parents>
			<probabilities>7.231106152638322e-05 0.001249948349241767 0.8935271269782241 0.09186603859344657 0.01321226395603487 7.231106152638322e-05 6.753106428957323e-05 0.0008779038357644518 0.9020124257158294 0.08758779038357646 0.009386817936250678 6.753106428957323e-05 0.0005518763796909492 0.0005518763796909492 0.9177704194260485 0.06677704194260485 0.01379690949227373 0.0005518763796909492 0.0007645259938837922 0.005351681957186545 0.9365443425076453 0.05122324159021407 0.005351681957186545 0.0007645259938837922 0.001937984496124031 0.001937984496124031 0.9205426356589146 0.07170542635658914 0.001937984496124031 0.001937984496124031</probabilities>
		</cpt>
		<cpt id="VE_PDOF_TR">
			<state id="s1_below_40" />
			<state id="s2_40_80" />
			<state id="s3_80_160" />
			<state id="s4_160_220" />
			<state id="s5_220_260" />
			<state id="s6_260_up" />
			<parents>OA_MAIS</parents>
			<probabilities>0.01110491302012314 0.0784161811495393 0.6046960869385564 0.1845274988636834 0.01135283665964217 0.1099024833684559 0.01019719070772555 0.1163560237709346 0.6443138843868179 0.1710561858454889 0.008576445164775797 0.04950027012425716 0.02041942604856512 0.2157836644591612 0.5137969094922737 0.1694260485651214 0.0336644591611479 0.04690949227373068 0.04204892966360856 0.1888379204892966 0.4961773700305811 0.1704892966360856 0.02370030581039756 0.07874617737003059 0.001937984496124031 0.1298449612403101 0.5484496124031008 0.1763565891472868 0.07170542635658915 0.07170542635658915</probabilities>
		</cpt>
		<cpt id="GV_FOOTPRINT">
			<state id="s1_below_2" />
			<state id="s2_2_4" />
			<state id="s3_4_5" />
			<state id="s4_5_6" />
			<state id="s5_6_7" />
			<state id="s6_7_up" />
			<parents>OA_MAIS</parents>
			<probabilities>0.0002582537911656544 0.8194599396719144 0.1102123879178546 0.05672286269162432 0.01079500847072435 0.002551547456716665 0.0004727174500270126 0.8456915180983253 0.09407077255537549 0.04990545650999461 0.008981631550513238 0.0008779038357644518 0.0005518763796909492 0.8647902869757174 0.08995584988962471 0.0303532008830022 0.01379690949227373 0.0005518763796909492 0.0007645259938837922 0.8998470948012233 0.06039755351681957 0.03287461773700306 0.005351681957186545 0.0007645259938837922 0.001937984496124031 0.8856589147286821 0.06007751937984496 0.04844961240310077 0.001937984496124031 0.001937984496124031</probabilities>
		</cpt>
		<cpt id="OA_BAGDEPLY">
			<state id="Deployed" />
			<state id="SNot_Deployed" />
			<parents>OA_MAIS</parents>
			<probabilities>0.4225548531052437 0.5774451468947565 0.7234602917341977 0.2765397082658023 0.6506622516556292 0.3493377483443709 0.6903669724770642 0.3096330275229358 0.8081395348837209 0.1918604651162791</probabilities>
		</cpt>
		<cpt id="OA_SEX">
			<state id="Female" />
			<state id="Male" />
			<parents>OA_MAIS</parents>
			<probabilities>0.4932750712780464 0.5067249287219537 0.5026337115072933 0.4973662884927066 0.4586092715231788 0.5413907284768212 0.4059633027522936 0.5940366972477065 0.3430232558139535 0.6569767441860465</probabilities>
		</cpt>
		<cpt id="OA_MANUSE">
			<state id="State0" />
			<state id="State1" />
			<parents>OA_MAIS</parents>
			<probabilities>0.09008925251022686 0.9099107474897733 0.2210291734197731 0.7789708265802269 0.2268211920529801 0.7731788079470199 0.3555045871559633 0.6444954128440368 0.3779069767441861 0.6220930232558139</probabilities>
		</cpt>
		<cpt id="GV_WGTCDTR">
			<state id="SPassenger_Car" />
			<state id="STruck____10000_lbs__" />
			<state id="STruck____6000_lbs__" />
			<parents>OA_MAIS</parents>
			<probabilities>0.6088591380521468 0.1290649146729474 0.262075947274906 0.627363587250135 0.1172339276066991 0.2554024851431659 0.6997792494481236 0.07726269315673288 0.2229580573951435 0.7217125382262997 0.07033639143730887 0.2079510703363914 0.7131782945736435 0.06201550387596899 0.2248062015503876</probabilities>
		</cpt>
		<cpt id="VE_GAD1">
			<state id="Front" />
			<state id="Left" />
			<state id="Rear" />
			<state id="Right" />
			<parents>OA_MAIS</parents>
			<probabilities>0.5781734225858436 0.1893671749101277 0.09280091731746623 0.1396584851865625 0.642726904376013 0.2083670988654781 0.04102512155591572 0.1078808752025932 0.418046357615894 0.3650662251655629 0.03725165562913908 0.179635761589404 0.4185779816513762 0.3314220183486239 0.07454128440366972 0.1754587155963303 0.5261627906976745 0.2005813953488372 0.04941860465116279 0.2238372093023256</probabilities>
		</cpt>
	</nodes>
	<extensions>
		<genie version="1.0" app="GeNIe 2.2.2414.0 ACADEMIC" name="vehicle_Final" faultnameformat="nodestate">
			<node id="GV_CURBWGT">
				<name>GV_CURBWGT</name>
				<interior color="e5f6f7" />
				<outline color="000080" />
				<font color="000000" name="Arial" size="8" />
				<position>572 202 644 250</position>
			</node>
			<node id="GV_DVLAT">
				<name>GV_DVLAT</name>
				<interior color="e5f6f7" />
				<outline color="000080" />
				<font color="000000" name="Arial" size="8" />
				<position>558 257 630 305</position>
			</node>
			<node id="GV_DVLONG">
				<name>GV_DVLONG</name>
				<interior color="e5f6f7" />
				<outline color="000080" />
				<font color="000000" name="Arial" size="8" />
				<position>520 307 592 355</position>
			</node>
			<node id="GV_ENERGY">
				<name>GV_ENERGY</name>
				<interior color="e5f6f7" />
				<outline color="000080" />
				<font color="000000" name="Arial" size="8" />
				<position>461 346 533 394</position>
			</node>
			<node id="GV_LANES">
				<name>GV_LANES</name>
				<interior color="e5f6f7" />
				<outline color="000080" />
				<font color="000000" name="Arial" size="8" />
				<position>386 371 458 419</position>
			</node>
			<node id="GV_MODELYR">
				<name>GV_MODELYR</name>
				<interior color="e5f6f7" />
				<outline color="000080" />
				<font color="000000" name="Arial" size="8" />
				<position>304 380 376 428</position>
			</node>
			<node id="GV_OTVEHWGT">
				<name>GV_OTVEHWGT</name>
				<interior color="e5f6f7" />
				<outline color="000080" />
				<font color="000000" name="Arial" size="8" />
				<position>222 371 294 419</position>
			</node>
			<node id="GV_SPLIMIT">
				<name>GV_SPLIMIT</name>
				<interior color="e5f6f7" />
				<outline color="000080" />
				<font color="000000" name="Arial" size="8" />
				<position>147 346 219 394</position>
			</node>
			<node id="OA_AGE">
				<name>OA_AGE</name>
				<interior color="e5f6f7" />
				<outline color="000080" />
				<font color="000000" name="Arial" size="8" />
				<position>88 307 160 355</position>
			</node>
			<node id="OA_HEIGHT">
				<name>OA_HEIGHT</name>
				<interior color="e5f6f7" />
				<outline color="000080" />
				<font color="000000" name="Arial" size="8" />
				<position>50 257 122 305</position>
			</node>
			<node id="OA_MAIS">
				<name>OA_MAIS</name>
				<interior color="ffff80" />
				<outline color="000080" />
				<font color="000000" name="Arial" size="8" />
				<position>304 202 376 250</position>
			</node>
			<node id="OA_WEIGHT">
				<name>OA_WEIGHT</name>
				<interior color="e5f6f7" />
				<outline color="000080" />
				<font color="000000" name="Arial" size="8" />
				<position>36 202 108 250</position>
			</node>
			<node id="VE_ORIGAVTW">
				<name>VE_ORIGAVTW</name>
				<interior color="e5f6f7" />
				<outline color="000080" />
				<font color="000000" name="Arial" size="8" />
				<position>50 147 122 195</position>
			</node>
			<node id="VE_WHEELBAS">
				<name>VE_WHEELBAS</name>
				<interior color="e5f6f7" />
				<outline color="000080" />
				<font color="000000" name="Arial" size="8" />
				<position>88 97 160 145</position>
			</node>
			<node id="VE_PDOF_TR">
				<name>VE_PDOF_TR</name>
				<interior color="e5f6f7" />
				<outline color="000080" />
				<font color="000000" name="Arial" size="8" />
				<position>147 58 219 106</position>
			</node>
			<node id="GV_FOOTPRINT">
				<name>GV_FOOTPRINT</name>
				<interior color="e5f6f7" />
				<outline color="000080" />
				<font color="000000" name="Arial" size="8" />
				<position>222 33 294 81</position>
			</node>
			<node id="OA_BAGDEPLY">
				<name>OA_BAGDEPLY</name>
				<interior color="e5f6f7" />
				<outline color="000080" />
				<font color="000000" name="Arial" size="8" />
				<position>304 24 376 72</position>
			</node>
			<node id="OA_SEX">
				<name>OA_SEX</name>
				<interior color="e5f6f7" />
				<outline color="000080" />
				<font color="000000" name="Arial" size="8" />
				<position>386 33 458 81</position>
			</node>
			<node id="OA_MANUSE">
				<name>OA_MANUSE</name>
				<interior color="e5f6f7" />
				<outline color="000080" />
				<font color="000000" name="Arial" size="8" />
				<position>461 58 533 106</position>
			</node>
			<node id="GV_WGTCDTR">
				<name>GV_WGTCDTR</name>
				<interior color="e5f6f7" />
				<outline color="000080" />
				<font color="000000" name="Arial" size="8" />
				<position>520 97 592 145</position>
			</node>
			<node id="VE_GAD1">
				<name>VE_GAD1</name>
				<interior color="e5f6f7" />
				<outline color="000080" />
				<font color="000000" name="Arial" size="8" />
				<position>558 147 630 195</position>
			</node>
		</genie>
	</extensions>
</smile>
