<?xml version="1.0" encoding="ISO-8859-1"?>
<!-- This network was created in GeNIe Academic, which can be used for educational and research purposes only -->
<smile version="1.0" id="Unnamed" numsamples="10000" discsamples="10000">
	<nodes>
		<cpt id="OA_MAIS">
			<state id="s1_below_1" />
			<state id="s2_1_3" />
			<state id="s3_3_4" />
			<state id="s4_4_5" />
			<state id="s5_5_up" />
			<probabilities>0.840095813372214 0.1284732347427619 0.01568423245157258 0.01131014372005832 0.004436575713393042</probabilities>
		</cpt>
		<cpt id="GV_MODELYR">
			<state id="s1_below_2001" />
			<state id="s2_2001_2003" />
			<state id="s3_2003_2005" />
			<state id="s4_2005_2007" />
			<state id="s5_2007_2009" />
			<state id="s6_2009_2011" />
			<state id="s7_2011_up" />
			<parents>OA_MAIS</parents>
			<probabilities>0.2651631868812977 0.25691972586729 0.2091324443499974 0.1560148045830456 0.08548052913988206 0.02666064566399264 0.0006286635144946785 0.3177240101875433 0.2776105579995369 0.1819865709655012 0.1366056957629081 0.06610326464459364 0.01991201667052558 5.788376939106274e-05 0.2852412488174077 0.3017975402081362 0.1925260170293283 0.1395458845789972 0.05014191106906338 0.03027436140018921 0.0004730368968779565 0.3401048492791612 0.2988204456094364 0.2070773263433814 0.1107470511140236 0.0235910878112713 0.01900393184796855 0.0006553079947575362 0.292358803986711 0.2458471760797342 0.2109634551495017 0.1528239202657807 0.07142857142857144 0.02491694352159469 0.001661129568106313</probabilities>
		</cpt>
		<cpt id="VE_ORIGAVTW">
			<state id="s1_below_116" />
			<state id="s2_116_141" />
			<state id="s3_141_151" />
			<state id="s4_151_159" />
			<state id="s5_159_169" />
			<state id="s6_169_179" />
			<state id="s7_179_up" />
			<parents>GV_MODELYR OA_MAIS</parents>
			<probabilities>3.338563749874804e-05 0.02176743564918372 0.4655627149200415 0.3274463325877208 0.1458618502320302 0.03765899909858779 0.001669281874937402 0.001455868971792539 0.0294813466787989 0.4855323020928117 0.3224749772520473 0.1288444040036397 0.03202911737943585 0.0001819836214740673 0.001642036124794745 0.04761904761904762 0.4499178981937603 0.3349753694581281 0.1625615763546798 0.001642036124794745 0.001642036124794745 0.001904761904761905 0.01523809523809524 0.4952380952380953 0.3619047619047619 0.1085714285714286 0.01523809523809524 0.001904761904761905 0.005494505494505495 0.04395604395604396 0.3516483516483517 0.3516483516483517 0.1593406593406594 0.08241758241758242 0.005494505494505495 3.44566191165323e-05 0.01233546964371856 0.3941492660740129 0.3960788367445387 0.1433050789056578 0.05213286472331336 0.001964027289642341 0.0002082465639316951 0.01332778009162849 0.4054560599750104 0.4302374010828822 0.1037067888379842 0.04685547688463141 0.0002082465639316951 0.001552795031055901 0.0124223602484472 0.4254658385093168 0.3711180124223603 0.1428571428571428 0.04503105590062112 0.001552795031055901 0.002164502164502165 0.03246753246753248 0.4415584415584416 0.3961038961038962 0.1233766233766234 0.002164502164502165 0.002164502164502165 0.006493506493506494 0.09740259740259742 0.3246753246753247 0.3701298701298702 0.1883116883116884 0.006493506493506494 0.006493506493506494 4.232804232804233e-05 0.002116402116402117 0.3129312169312169 0.4361904761904762 0.1576719576719577 0.08922751322751324 0.00182010582010582 0.0003174603174603175 0.004761904761904761 0.3714285714285714 0.3914285714285714 0.1625396825396825 0.06698412698412698 0.00253968253968254 0.002421307506053268 0.002421307506053268 0.460048426150121 0.3414043583535109 0.1719128329297821 0.01937046004842615 0.002421307506053268 0.003105590062111801 0.003105590062111801 0.2857142857142856 0.5465838509316769 0.09006211180124223 0.06832298136645962 0.003105590062111801 0.007518796992481204 0.007518796992481204 0.5338345864661656 0.3233082706766918 0.1127819548872181 0.007518796992481204 0.007518796992481204 5.673436968115283e-05 0.0004538749574492226 0.2859979575626914 0.4670940655849313 0.1605015318279814 0.08464767956428003 0.001248156132985362 0.0004226542688081149 0.0004226542688081149 0.2962806424344885 0.4797125950972104 0.1483516483516483 0.07438715131022822 0.0004226542688081149 0.003322259136212624 0.02657807308970099 0.1893687707641196 0.5382059800664452 0.1893687707641196 0.04983388704318937 0.003322259136212624 0.005714285714285715 0.005714285714285715 0.3657142857142858 0.4057142857142857 0.1657142857142858 0.04571428571428572 0.005714285714285715 0.01020408163265306 0.01020408163265306 0.3673469387755102 0.2959183673469388 0.2244897959183673 0.08163265306122448 0.01020408163265306 0.0001035196687370601 0.003002070393374742 0.2834368530020704 0.4856107660455487 0.1312629399585921 0.09430641821946172 0.002277432712215321 0.0008710801393728224 0.0008710801393728224 0.2630662020905924 0.5313588850174217 0.1045296167247387 0.09843205574912893 0.0008710801393728224 0.00892857142857143 0.00892857142857143 0.5089285714285715 0.3214285714285715 0.1339285714285715 0.00892857142857143 0.00892857142857143 0.02380952380952381 0.02380952380952381 0.3571428571428571 0.3571428571428571 0.1904761904761905 0.02380952380952381 0.02380952380952381 0.02040816326530612 0.02040816326530612 0.5918367346938774 0.3061224489795917 0.02040816326530612 0.02040816326530612 0.02040816326530612 0.0003314550878355983 0.0003314550878355983 0.2230692741133576 0.5038117335101093 0.1650646337421279 0.1070599933708982 0.0003314550878355983 0.002857142857142857 0.002857142857142857 0.3228571428571428 0.5628571428571427 0.08285714285714285 0.02285714285714285 0.002857142857142857 0.01428571428571429 0.01428571428571429 0.2142857142857143 0.2142857142857143 0.5142857142857143 0.01428571428571429 0.01428571428571429 0.02857142857142856 0.02857142857142856 0.4285714285714284 0.4285714285714284 0.02857142857142856 0.02857142857142856 0.02857142857142856 0.04761904761904762 0.04761904761904762 0.380952380952381 0.380952380952381 0.04761904761904762 0.04761904761904762 0.04761904761904762 0.01298701298701299 0.01298701298701299 0.2857142857142857 0.3766233766233767 0.1948051948051948 0.1038961038961039 0.01298701298701299 0.1428571428571429 0.1428571428571429 0.1428571428571429 0.1428571428571429 0.1428571428571429 0.1428571428571429 0.1428571428571429 0.1428571428571429 0.1428571428571429 0.1428571428571429 0.1428571428571429 0.1428571428571429 0.1428571428571429 0.1428571428571429 0.1428571428571429 0.1428571428571429 0.1428571428571429 0.1428571428571429 0.1428571428571429 0.1428571428571429 0.1428571428571429 0.1428571428571429 0.1428571428571429 0.1428571428571429 0.1428571428571429 0.1428571428571429 0.1428571428571429 0.1428571428571429</probabilities>
		</cpt>
		<cpt id="GV_CURBWGT">
			<state id="s01_below_885" />
			<state id="s02_885_1255" />
			<state id="s03_1255_1695" />
			<state id="s04_1695_2075" />
			<state id="s05_2075_2555" />
			<state id="s06_2555_2795" />
			<state id="s07_2795_3165" />
			<state id="s08_3165_3715" />
			<state id="s09_3715_4095" />
			<state id="s10_4095_up" />
			<parents>VE_ORIGAVTW OA_MAIS</parents>
			<probabilities>0.1 0.1 0.1 0.1 0.1 0.1 0.1 0.1 0.1 0.1 0.05 0.5500000000000002 0.05 0.05 0.05 0.05 0.05 0.05 0.05 0.05 0.1 0.1 0.1 0.1 0.1 0.1 0.1 0.1 0.1 0.1 0.1 0.1 0.1 0.1 0.1 0.1 0.1 0.1 0.1 0.1 0.1 0.1 0.1 0.1 0.1 0.1 0.1 0.1 0.1 0.1 0.03885350318471337 0.121656050955414 0.6630573248407643 0.1598726114649682 0.01337579617834395 0.0006369426751592354 0.0006369426751592354 0.0006369426751592354 0.0006369426751592354 0.0006369426751592354 0.002857142857142856 0.08857142857142856 0.7171428571428572 0.1457142857142857 0.03142857142857142 0.002857142857142856 0.002857142857142856 0.002857142857142856 0.002857142857142856 0.002857142857142856 0.01428571428571428 0.3 0.1571428571428571 0.3 0.1571428571428571 0.01428571428571428 0.01428571428571428 0.01428571428571428 0.01428571428571428 0.01428571428571428 0.02499999999999999 0.275 0.525 0.02499999999999999 0.02499999999999999 0.02499999999999999 0.02499999999999999 0.02499999999999999 0.02499999999999999 0.02499999999999999 0.02499999999999999 0.275 0.525 0.02499999999999999 0.02499999999999999 0.02499999999999999 0.02499999999999999 0.02499999999999999 0.02499999999999999 0.02499999999999999 0.0001866621415238418 0.4542847446122518 0.4517393517732903 0.08842694722552182 0.00425929068386221 0.0003563549974546072 0.0005260478533853725 1.696928559307653e-05 0.0001866621415238418 1.696928559307653e-05 0.000101419878296146 0.4980730223123732 0.4159229208924949 0.07920892494929004 0.004158215010141987 0.002129817444219066 0.000101419878296146 0.000101419878296146 0.000101419878296146 0.000101419878296146 0.0008064516129032257 0.525 0.3798387096774195 0.08145161290322582 0.008870967741935484 0.0008064516129032257 0.0008064516129032257 0.0008064516129032257 0.0008064516129032257 0.0008064516129032257 0.001075268817204301 0.4741935483870968 0.4419354838709678 0.07634408602150537 0.001075268817204301 0.001075268817204301 0.001075268817204301 0.001075268817204301 0.001075268817204301 0.001075268817204301 0.002702702702702702 0.3810810810810811 0.5432432432432434 0.05675675675675676 0.002702702702702702 0.002702702702702702 0.002702702702702702 0.002702702702702702 0.002702702702702702 0.002702702702702702 0.0009266291964150082 0.0136867689503266 0.7249126538052558 0.2049369588333586 0.0531824396171958 0.001534254898982227 0.0004709099194895943 0.0003190034938477897 1.519064256418046e-05 1.519064256418046e-05 9.980039920159676e-05 0.01806387225548902 0.7446107784431137 0.1817365269461078 0.05099800399201596 0.002095808383233533 0.001097804391217565 9.980039920159676e-05 9.980039920159676e-05 0.001097804391217565 0.009649122807017544 0.0008771929824561402 0.8166666666666668 0.1412280701754386 0.02719298245614036 0.0008771929824561402 0.0008771929824561402 0.0008771929824561402 0.0008771929824561402 0.0008771929824561402 0.001075268817204301 0.02258064516129033 0.8397849462365593 0.1193548387096774 0.01182795698924731 0.001075268817204301 0.001075268817204301 0.001075268817204301 0.001075268817204301 0.001075268817204301 0.003225806451612902 0.003225806451612902 0.8096774193548387 0.132258064516129 0.03548387096774193 0.003225806451612902 0.003225806451612902 0.003225806451612902 0.003225806451612902 0.003225806451612902 0.00045662100456621 0.00377750103777501 0.06479867164798671 0.5961394769613947 0.2960149439601494 0.03075965130759651 0.007513491075134911 0.00045662100456621 4.151100041510999e-05 4.151100041510999e-05 0.0003154574132492112 0.006624605678233439 0.03817034700315457 0.6154574132492113 0.3063091482649842 0.01608832807570978 0.01293375394321766 0.003470031545741324 0.0003154574132492112 0.0003154574132492112 0.001886792452830188 0.02075471698113207 0.07735849056603772 0.6056603773584904 0.190566037735849 0.0962264150943396 0.001886792452830188 0.001886792452830188 0.001886792452830188 0.001886792452830188 0.003846153846153844 0.003846153846153844 0.003846153846153844 0.773076923076923 0.1576923076923077 0.003846153846153844 0.0423076923076923 0.003846153846153844 0.003846153846153844 0.003846153846153844 0.007142857142857143 0.007142857142857143 0.007142857142857143 0.4357142857142858 0.3642857142857144 0.15 0.007142857142857143 0.007142857142857143 0.007142857142857143 0.007142857142857143 9.354536950420951e-05 0.001964452759588401 0.008512628624883068 0.1385406922357343 0.5342376052385407 0.1984097287184284 0.08802619270346118 0.0234798877455566 0.004770813844714687 0.001964452759588401 0.000769230769230769 0.000769230769230769 0.000769230769230769 0.1084615384615385 0.546923076923077 0.2392307692307692 0.06230769230769231 0.03153846153846154 0.000769230769230769 0.008461538461538461 0.0125 0.0125 0.0125 0.2625000000000001 0.5125000000000001 0.1375 0.0125 0.0125 0.0125 0.0125 0.01666666666666667 0.01666666666666667 0.01666666666666667 0.1833333333333333 0.3500000000000001 0.1833333333333333 0.1833333333333333 0.01666666666666667 0.01666666666666667 0.01666666666666667 0.02499999999999999 0.02499999999999999 0.02499999999999999 0.275 0.02499999999999999 0.525 0.02499999999999999 0.02499999999999999 0.02499999999999999 0.02499999999999999 0.00357142857142857 0.00357142857142857 0.075 0.2535714285714286 0.2892857142857143 0.1821428571428571 0.1821428571428571 0.00357142857142857 0.00357142857142857 0.00357142857142857 0.05 0.05 0.05 0.05 0.5500000000000002 0.05 0.05 0.05 0.05 0.05 0.1 0.1 0.1 0.1 0.1 0.1 0.1 0.1 0.1 0.1 0.1 0.1 0.1 0.1 0.1 0.1 0.1 0.1 0.1 0.1 0.1 0.1 0.1 0.1 0.1 0.1 0.1 0.1 0.1 0.1</probabilities>
		</cpt>
		<cpt id="GV_ENERGY">
			<state id="s01_below_742" />
			<state id="s02_742_1982" />
			<state id="s03_1982_2717" />
			<state id="s04_2717_3770" />
			<state id="s05_3770_4674" />
			<state id="s06_4674_6056" />
			<state id="s07_6056_6970" />
			<state id="s08_6970_8231" />
			<state id="s09_8231_9249" />
			<state id="s10_9249_up" />
			<parents>GV_CURBWGT OA_MAIS</parents>
			<probabilities>0.7400000000000001 0.2066666666666667 0.006666666666666665 0.006666666666666665 0.006666666666666665 0.006666666666666665 0.006666666666666665 0.006666666666666665 0.006666666666666665 0.006666666666666665 0.1 0.1 0.1 0.1 0.1 0.1 0.1 0.1 0.1 0.1 0.05 0.5500000000000002 0.05 0.05 0.05 0.05 0.05 0.05 0.05 0.05 0.1 0.1 0.1 0.1 0.1 0.1 0.1 0.1 0.1 0.1 0.1 0.1 0.1 0.1 0.1 0.1 0.1 0.1 0.1 0.1 0.9128305932809151 0.08009292351679773 0.004324517512508935 0.001465332380271623 0.0007505360972122946 0.0003931379556826305 3.57398141529664e-05 3.57398141529664e-05 3.57398141529664e-05 3.57398141529664e-05 0.6765503875968992 0.2812015503875969 0.01763565891472868 0.01569767441860465 0.004069767441860465 0.002131782945736434 0.002131782945736434 0.000193798449612403 0.000193798449612403 0.000193798449612403 0.3492753623188406 0.4652173913043479 0.08840579710144927 0.03043478260869565 0.05942028985507246 0.00144927536231884 0.00144927536231884 0.00144927536231884 0.00144927536231884 0.00144927536231884 0.35625 0.35625 0.10625 0.06458333333333333 0.06458333333333333 0.04374999999999999 0.002083333333333332 0.002083333333333332 0.002083333333333332 0.002083333333333332 0.06875000000000001 0.3812500000000001 0.13125 0.1937500000000001 0.13125 0.06875000000000001 0.006249999999999999 0.006249999999999999 0.006249999999999999 0.006249999999999999 0.8816636387230727 0.1088891772644692 0.00624188943680249 0.002478588113158577 0.0002725149234362833 0.0004022839345964182 1.297690111601349e-05 1.297690111601349e-05 1.297690111601349e-05 1.297690111601349e-05 0.598073701842546 0.319179229480737 0.04447236180904523 0.02102177554438861 0.005946398659966499 0.005946398659966499 0.003433835845896147 0.0009212730318257956 0.0009212730318257956 8.375209380234504e-05 0.3294520547945206 0.4184931506849315 0.1034246575342466 0.05547945205479451 0.05547945205479451 0.01438356164383562 0.01438356164383562 0.007534246575342464 0.0006849315068493147 0.0006849315068493147 0.2467213114754098 0.3532786885245902 0.07459016393442623 0.1565573770491804 0.07459016393442623 0.05 0.01721311475409836 0.00901639344262295 0.00901639344262295 0.00901639344262295 0.06458333333333333 0.2520833333333333 0.1270833333333333 0.1895833333333333 0.1479166666666666 0.16875 0.02291666666666666 0.002083333333333332 0.02291666666666666 0.002083333333333332 0.8529108115858905 0.1351018067106395 0.007198164611413824 0.002896472612560941 0.001175795813019788 0.0006022368798394036 2.867794665901921e-05 2.867794665901921e-05 2.867794665901921e-05 2.867794665901921e-05 0.5581052631578948 0.3286315789473684 0.0591578947368421 0.03810526315789474 0.01073684210526316 0.00231578947368421 0.00231578947368421 0.0002105263157894736 0.0002105263157894736 0.0002105263157894736 0.319047619047619 0.4619047619047618 0.08095238095238093 0.09682539682539679 0.001587301587301586 0.001587301587301586 0.03333333333333333 0.001587301587301586 0.001587301587301586 0.001587301587301586 0.1775 0.3525 0.1025 0.1025 0.1025 0.1025 0.0275 0.002499999999999999 0.002499999999999999 0.0275 0.007142857142857143 0.15 0.007142857142857143 0.3642857142857144 0.2928571428571429 0.07857142857142858 0.007142857142857143 0.007142857142857143 0.007142857142857143 0.07857142857142858 0.8204191616766467 0.1545508982035929 0.01562874251497006 0.004251497005988024 0.00125748502994012 0.003652694610778444 5.988023952095807e-05 5.988023952095807e-05 5.988023952095807e-05 5.988023952095807e-05 0.4606194690265487 0.3234513274336284 0.08008849557522126 0.08893805309734515 0.01371681415929204 0.02256637168141593 0.0004424778761061946 0.00929203539823009 0.0004424778761061946 0.0004424778761061946 0.405 0.255 0.004999999999999998 0.004999999999999998 0.205 0.105 0.004999999999999998 0.004999999999999998 0.004999999999999998 0.004999999999999998 0.2625000000000001 0.0125 0.2625000000000001 0.1375 0.1375 0.1375 0.0125 0.0125 0.0125 0.0125 0.1571428571428571 0.1571428571428571 0.01428571428571428 0.01428571428571428 0.1571428571428571 0.4428571428571429 0.01428571428571428 0.01428571428571428 0.01428571428571428 0.01428571428571428 0.812828947368421 0.1615131578947368 0.01348684210526316 0.006907894736842105 0.0003289473684210525 0.003618421052631578 0.0003289473684210525 0.0003289473684210525 0.0003289473684210525 0.0003289473684210525 0.4902439024390244 0.3439024390243903 0.02682926829268292 0.09999999999999999 0.002439024390243902 0.002439024390243902 0.02682926829268292 0.002439024390243902 0.002439024390243902 0.002439024390243902 0.01428571428571428 0.4428571428571429 0.1571428571428571 0.1571428571428571 0.01428571428571428 0.01428571428571428 0.01428571428571428 0.01428571428571428 0.1571428571428571 0.01428571428571428 0.05 0.05 0.05 0.05 0.5500000000000002 0.05 0.05 0.05 0.05 0.05 0.22 0.02 0.02 0.02 0.22 0.22 0.02 0.02 0.02 0.22 0.7830645161290324 0.1862903225806452 0.025 0.0008064516129032257 0.0008064516129032257 0.0008064516129032257 0.0008064516129032257 0.0008064516129032257 0.0008064516129032257 0.0008064516129032257 0.5785714285714286 0.2214285714285715 0.07857142857142857 0.07857142857142857 0.007142857142857141 0.007142857142857141 0.007142857142857141 0.007142857142857141 0.007142857142857141 0.007142857142857141 0.1 0.1 0.1 0.1 0.1 0.1 0.1 0.1 0.1 0.1 0.03333333333333333 0.03333333333333333 0.3666666666666666 0.03333333333333333 0.3666666666666666 0.03333333333333333 0.03333333333333333 0.03333333333333333 0.03333333333333333 0.03333333333333333 0.1 0.1 0.1 0.1 0.1 0.1 0.1 0.1 0.1 0.1 0.693103448275862 0.2793103448275862 0.003448275862068964 0.003448275862068964 0.003448275862068964 0.003448275862068964 0.003448275862068964 0.003448275862068964 0.003448275862068964 0.003448275862068964 0.5166666666666667 0.01666666666666666 0.1833333333333333 0.1833333333333333 0.01666666666666666 0.01666666666666666 0.01666666666666666 0.01666666666666666 0.01666666666666666 0.01666666666666666 0.1 0.1 0.1 0.1 0.1 0.1 0.1 0.1 0.1 0.1 0.1 0.1 0.1 0.1 0.1 0.1 0.1 0.1 0.1 0.1 0.1 0.1 0.1 0.1 0.1 0.1 0.1 0.1 0.1 0.1 0.7285714285714288 0.1571428571428572 0.01428571428571429 0.01428571428571429 0.01428571428571429 0.01428571428571429 0.01428571428571429 0.01428571428571429 0.01428571428571429 0.01428571428571429 0.1 0.1 0.1 0.1 0.1 0.1 0.1 0.1 0.1 0.1 0.1 0.1 0.1 0.1 0.1 0.1 0.1 0.1 0.1 0.1 0.1 0.1 0.1 0.1 0.1 0.1 0.1 0.1 0.1 0.1 0.1 0.1 0.1 0.1 0.1 0.1 0.1 0.1 0.1 0.1 0.7 0.03333333333333332 0.03333333333333332 0.03333333333333332 0.03333333333333332 0.03333333333333332 0.03333333333333332 0.03333333333333332 0.03333333333333332 0.03333333333333332 0.3666666666666666 0.3666666666666666 0.03333333333333333 0.03333333333333333 0.03333333333333333 0.03333333333333333 0.03333333333333333 0.03333333333333333 0.03333333333333333 0.03333333333333333 0.1 0.1 0.1 0.1 0.1 0.1 0.1 0.1 0.1 0.1 0.1 0.1 0.1 0.1 0.1 0.1 0.1 0.1 0.1 0.1 0.1 0.1 0.1 0.1 0.1 0.1 0.1 0.1 0.1 0.1</probabilities>
		</cpt>
		<cpt id="GV_DVLONG">
			<state id="s01_below_n139" />
			<state id="s02_n139_n112" />
			<state id="s03_n112_n81" />
			<state id="s04_n81_n54" />
			<state id="s05_n54_n24" />
			<state id="s06_n24_1" />
			<state id="s07_1_25" />
			<state id="s08_25_41" />
			<state id="s09_41_71" />
			<state id="s10_71_up" />
			<parents>GV_ENERGY OA_MAIS</parents>
			<probabilities>7.104795737122554e-06 7.104795737122554e-06 7.815275310834811e-05 0.003133214920071048 0.1349982238010657 0.7325825932504439 0.09819538188277084 0.02430550621669627 0.0066145648312611 7.815275310834811e-05 6.825938566552898e-05 6.825938566552898e-05 6.825938566552898e-05 0.0089419795221843 0.2512627986348123 0.6724232081911263 0.05058020477815699 0.01303754266211604 0.003481228668941979 6.825938566552898e-05 0.0009900990099009901 0.0009900990099009901 0.0009900990099009901 0.01089108910891089 0.1495049504950496 0.6643564356435645 0.1099009900990099 0.0405940594059406 0.0207920792079208 0.0009900990099009901 0.00175438596491228 0.00175438596491228 0.00175438596491228 0.00175438596491228 0.212280701754386 0.5807017543859649 0.1421052631578947 0.03684210526315789 0.01929824561403509 0.00175438596491228 0.01428571428571429 0.01428571428571429 0.01428571428571429 0.01428571428571429 0.1571428571428572 0.5857142857142859 0.1571428571428572 0.01428571428571429 0.01428571428571429 0.01428571428571429 5.327650506126796e-05 5.327650506126796e-05 0.0005860415556739476 0.02615876398508258 0.4315929675013319 0.3937666489078316 0.04853489611081512 0.08156632924880126 0.0176345231752797 5.327650506126796e-05 0.0001291989664082687 0.001421188630490956 0.002713178294573643 0.05956072351421188 0.5169250645994832 0.35671834625323 0.02080103359173126 0.02080103359173126 0.02080103359173126 0.0001291989664082687 0.0007575757575757574 0.008333333333333333 0.01590909090909091 0.06136363636363636 0.4174242424242424 0.4325757575757576 0.03106060606060606 0.008333333333333333 0.02348484848484849 0.0007575757575757574 0.01466666666666667 0.01466666666666667 0.001333333333333333 0.04133333333333334 0.3080000000000001 0.4546666666666667 0.1213333333333333 0.01466666666666667 0.028 0.001333333333333333 0.004545454545454544 0.004545454545454544 0.05 0.09545454545454546 0.3681818181818182 0.4136363636363636 0.05 0.004545454545454544 0.004545454545454544 0.004545454545454544 0.0008403361344537811 0.0008403361344537811 0.009243697478991595 0.02605042016806723 0.4630252100840336 0.3285714285714286 0.04285714285714285 0.05966386554621848 0.0680672268907563 0.0008403361344537811 0.0008928571428571425 0.0008928571428571425 0.009821428571428569 0.2598214285714286 0.4383928571428571 0.20625 0.01875 0.01875 0.04553571428571428 0.0008928571428571425 0.00357142857142857 0.00357142857142857 0.00357142857142857 0.2535714285714286 0.4321428571428571 0.1821428571428571 0.075 0.00357142857142857 0.03928571428571428 0.00357142857142857 0.004545454545454544 0.004545454545454544 0.004545454545454544 0.2318181818181818 0.3227272727272727 0.2772727272727273 0.05 0.05 0.05 0.004545454545454544 0.01111111111111111 0.01111111111111111 0.01111111111111111 0.3444444444444444 0.3444444444444444 0.2333333333333333 0.01111111111111111 0.01111111111111111 0.01111111111111111 0.01111111111111111 0.02558139534883721 0.04883720930232558 0.04883720930232558 0.1651162790697674 0.3046511627906976 0.2348837209302325 0.02558139534883721 0.04883720930232558 0.09534883720930232 0.002325581395348836 0.001282051282051282 0.001282051282051282 0.06538461538461537 0.3217948717948718 0.4115384615384615 0.1166666666666667 0.0141025641025641 0.0141025641025641 0.03974358974358974 0.0141025641025641 0.005555555555555553 0.005555555555555553 0.1166666666666667 0.1722222222222222 0.2833333333333333 0.2833333333333333 0.1166666666666667 0.005555555555555553 0.005555555555555553 0.005555555555555553 0.00357142857142857 0.00357142857142857 0.03928571428571428 0.3607142857142857 0.3607142857142857 0.2178571428571428 0.00357142857142857 0.00357142857142857 0.00357142857142857 0.00357142857142857 0.005555555555555553 0.005555555555555553 0.005555555555555553 0.2833333333333333 0.1166666666666667 0.3944444444444444 0.1166666666666667 0.005555555555555553 0.0611111111111111 0.005555555555555553 0.1 0.00909090909090909 0.00909090909090909 0.1 0.3727272727272728 0.1 0.1 0.1 0.1 0.00909090909090909 0.005555555555555553 0.005555555555555553 0.005555555555555553 0.6166666666666666 0.005555555555555553 0.2277777777777777 0.1166666666666667 0.005555555555555553 0.005555555555555553 0.005555555555555553 0.005882352941176469 0.005882352941176469 0.1235294117647059 0.3 0.4176470588235294 0.06470588235294117 0.06470588235294117 0.005882352941176469 0.005882352941176469 0.005882352941176469 0.004999999999999998 0.004999999999999998 0.05499999999999999 0.355 0.255 0.305 0.004999999999999998 0.004999999999999998 0.004999999999999998 0.004999999999999998 0.006249999999999999 0.006249999999999999 0.25625 0.31875 0.1937500000000001 0.13125 0.06875000000000001 0.006249999999999999 0.006249999999999999 0.006249999999999999 0.007142857142857141 0.007142857142857141 0.007142857142857141 0.07857142857142857 0.2214285714285715 0.07857142857142857 0.007142857142857141 0.007142857142857141 0.5071428571428572 0.07857142857142857 0.006666666666666665 0.006666666666666665 0.07333333333333333 0.4066666666666667 0.07333333333333333 0.4066666666666667 0.006666666666666665 0.006666666666666665 0.006666666666666665 0.006666666666666665 0.02 0.02 0.02 0.4200000000000001 0.22 0.22 0.02 0.02 0.02 0.02 0.007142857142857143 0.007142857142857143 0.2928571428571429 0.3642857142857144 0.2214285714285715 0.07857142857142858 0.007142857142857143 0.007142857142857143 0.007142857142857143 0.007142857142857143 0.006666666666666665 0.006666666666666665 0.2733333333333334 0.34 0.2733333333333334 0.07333333333333333 0.006666666666666665 0.006666666666666665 0.006666666666666665 0.006666666666666665 0.1 0.1 0.1 0.1 0.1 0.1 0.1 0.1 0.1 0.1 0.0125 0.0125 0.0125 0.3875 0.2625 0.2625 0.0125 0.0125 0.0125 0.0125 0.02 0.02 0.2200000000000001 0.02 0.2200000000000001 0.4200000000000002 0.02 0.02 0.02 0.02 0.02499999999999999 0.02499999999999999 0.02499999999999999 0.02499999999999999 0.02499999999999999 0.525 0.02499999999999999 0.02499999999999999 0.02499999999999999 0.275 0.05 0.05 0.05 0.05 0.05 0.05 0.5500000000000002 0.05 0.05 0.05 0.1 0.1 0.1 0.1 0.1 0.1 0.1 0.1 0.1 0.1 0.025 0.025 0.275 0.275 0.025 0.275 0.025 0.025 0.025 0.025 0.05 0.05 0.5500000000000002 0.05 0.05 0.05 0.05 0.05 0.05 0.05 0.05 0.05 0.5500000000000002 0.05 0.05 0.05 0.05 0.05 0.05 0.05 0.1 0.1 0.1 0.1 0.1 0.1 0.1 0.1 0.1 0.1 0.1 0.1 0.1 0.1 0.1 0.1 0.1 0.1 0.1 0.1 0.05 0.05 0.05 0.5500000000000002 0.05 0.05 0.05 0.05 0.05 0.05 0.05 0.05 0.05 0.5500000000000002 0.05 0.05 0.05 0.05 0.05 0.05 0.05 0.5500000000000002 0.05 0.05 0.05 0.05 0.05 0.05 0.05 0.05 0.05 0.05 0.05 0.05 0.5500000000000002 0.05 0.05 0.05 0.05 0.05 0.1 0.1 0.1 0.1 0.1 0.1 0.1 0.1 0.1 0.1 0.1 0.1 0.1 0.1 0.1 0.1 0.1 0.1 0.1 0.1 0.1 0.1 0.1 0.1 0.1 0.1 0.1 0.1 0.1 0.1 0.03333333333333333 0.03333333333333333 0.03333333333333333 0.3666666666666666 0.3666666666666666 0.03333333333333333 0.03333333333333333 0.03333333333333333 0.03333333333333333 0.03333333333333333 0.03333333333333333 0.03333333333333333 0.03333333333333333 0.3666666666666666 0.03333333333333333 0.3666666666666666 0.03333333333333333 0.03333333333333333 0.03333333333333333 0.03333333333333333</probabilities>
		</cpt>
		<cpt id="VE_PDOF_TR">
			<state id="s1_below_40" />
			<state id="s2_40_80" />
			<state id="s3_80_160" />
			<state id="s4_160_220" />
			<state id="s5_220_260" />
			<state id="s6_260_up" />
			<parents>GV_DVLONG OA_MAIS</parents>
			<probabilities>0.05555555555555556 0.05555555555555556 0.7222222222222222 0.05555555555555556 0.05555555555555556 0.05555555555555556 0.1666666666666667 0.1666666666666667 0.1666666666666667 0.1666666666666667 0.1666666666666667 0.1666666666666667 0.1666666666666667 0.1666666666666667 0.1666666666666667 0.1666666666666667 0.1666666666666667 0.1666666666666667 0.08333333333333333 0.08333333333333333 0.5833333333333334 0.08333333333333333 0.08333333333333333 0.08333333333333333 0.1666666666666667 0.1666666666666667 0.1666666666666667 0.1666666666666667 0.1666666666666667 0.1666666666666667 0.05555555555555556 0.7222222222222222 0.05555555555555556 0.05555555555555556 0.05555555555555556 0.05555555555555556 0.08333333333333333 0.08333333333333333 0.5833333333333334 0.08333333333333333 0.08333333333333333 0.08333333333333333 0.08333333333333333 0.08333333333333333 0.5833333333333334 0.08333333333333333 0.08333333333333333 0.08333333333333333 0.3888888888888889 0.05555555555555555 0.3888888888888889 0.05555555555555555 0.05555555555555555 0.05555555555555555 0.1666666666666667 0.1666666666666667 0.1666666666666667 0.1666666666666667 0.1666666666666667 0.1666666666666667 0.02777777777777777 0.1944444444444444 0.6944444444444443 0.02777777777777777 0.02777777777777777 0.02777777777777777 0.01515151515151515 0.2878787878787879 0.6515151515151516 0.01515151515151515 0.01515151515151515 0.01515151515151515 0.01851851851851852 0.1296296296296296 0.7962962962962963 0.01851851851851852 0.01851851851851852 0.01851851851851852 0.02083333333333333 0.02083333333333333 0.8958333333333334 0.02083333333333333 0.02083333333333333 0.02083333333333333 0.01666666666666667 0.01666666666666667 0.9166666666666667 0.01666666666666667 0.01666666666666667 0.01666666666666667 0.06761006289308175 0.1713836477987421 0.671383647798742 0.07704402515723269 0.001572327044025157 0.0110062893081761 0.02328431372549019 0.08946078431372548 0.8688725490196079 0.01593137254901961 0.001225490196078431 0.001225490196078431 0.04166666666666666 0.2202380952380952 0.7202380952380951 0.00595238095238095 0.00595238095238095 0.00595238095238095 0.005208333333333333 0.09895833333333333 0.8489583333333334 0.03645833333333334 0.005208333333333333 0.005208333333333333 0.007575757575757576 0.1893939393939394 0.6439393939393939 0.143939393939394 0.007575757575757576 0.007575757575757576 0.01190476190476191 0.05784876764776263 0.8493060540799235 0.07902608279492702 0.001136635558746112 0.0007776980138789185 0.008401719421649082 0.03888237592809692 0.85599843688941 0.09632669011332554 0.000195388823759281 0.000195388823759281 0.001718213058419244 0.09450171821305839 0.754295532646048 0.1254295532646048 0.01202749140893471 0.01202749140893471 0.03494623655913979 0.09946236559139787 0.631720430107527 0.2123655913978495 0.002688172043010753 0.01881720430107527 0.0072463768115942 0.0507246376811594 0.7028985507246375 0.2246376811594202 0.0072463768115942 0.0072463768115942 0.004338557617246142 0.09648411697592026 0.6544916831802078 0.2349276406653456 0.005509517804599772 0.004248483756680478 0.002422851313440449 0.1776332568222392 0.5510073960724304 0.2564396837541443 0.007013516959959194 0.005483295077786279 0.008393285371702639 0.3321342925659473 0.3537170263788969 0.2673860911270983 0.02997601918465229 0.008393285371702639 0.001872659176029962 0.350187265917603 0.3389513108614232 0.2602996254681648 0.01310861423220974 0.03558052434456928 0.006172839506172839 0.191358024691358 0.2654320987654321 0.2654320987654321 0.1172839506172839 0.154320987654321 0.0615575061895116 0.008215169930227324 0.02509565608822868 0.05953184785055143 0.05885662840423139 0.7867431915372497 0.1163194444444444 0.07465277777777778 0.1371527777777778 0.0329861111111111 0.1163194444444444 0.5225694444444444 0.1984126984126984 0.1507936507936508 0.246031746031746 0.05555555555555555 0.1984126984126984 0.1507936507936508 0.3245614035087719 0.06140350877192981 0.1666666666666666 0.008771929824561401 0.2192982456140351 0.2192982456140351 0.02380952380952381 0.1666666666666667 0.1666666666666667 0.02380952380952381 0.4523809523809523 0.1666666666666667 0.0003293807641633728 0.0003293807641633728 0.004281949934123846 0.05566534914361001 0.03194993412384717 0.9074440052700922 0.02991452991452992 0.004273504273504273 0.004273504273504273 0.004273504273504273 0.004273504273504273 0.9529914529914529 0.02777777777777778 0.02777777777777778 0.02777777777777778 0.1944444444444444 0.1944444444444444 0.5277777777777777 0.03333333333333333 0.03333333333333333 0.03333333333333333 0.03333333333333333 0.03333333333333333 0.8333333333333335 0.1666666666666667 0.1666666666666667 0.1666666666666667 0.1666666666666667 0.1666666666666667 0.1666666666666667 0.001133786848072562 0.001133786848072562 0.05555555555555555 0.1712018140589569 0.1031746031746032 0.6678004535147393 0.005555555555555555 0.005555555555555555 0.03888888888888889 0.005555555555555555 0.03888888888888889 0.9055555555555556 0.02380952380952381 0.02380952380952381 0.02380952380952381 0.02380952380952381 0.02380952380952381 0.8809523809523809 0.03333333333333333 0.03333333333333333 0.03333333333333333 0.03333333333333333 0.03333333333333333 0.8333333333333335 0.08333333333333333 0.08333333333333333 0.08333333333333333 0.08333333333333333 0.08333333333333333 0.5833333333333334 0.05555555555555555 0.05555555555555555 0.05555555555555555 0.05555555555555555 0.3888888888888889 0.3888888888888889 0.08333333333333333 0.08333333333333333 0.08333333333333333 0.08333333333333333 0.08333333333333333 0.5833333333333334 0.1666666666666667 0.1666666666666667 0.1666666666666667 0.1666666666666667 0.1666666666666667 0.1666666666666667 0.08333333333333333 0.08333333333333333 0.08333333333333333 0.08333333333333333 0.08333333333333333 0.5833333333333334 0.1666666666666667 0.1666666666666667 0.1666666666666667 0.1666666666666667 0.1666666666666667 0.1666666666666667</probabilities>
		</cpt>
		<cpt id="GV_DVLAT">
			<state id="s01_below_n103" />
			<state id="s02_n103_n76" />
			<state id="s03_n76_n53" />
			<state id="s04_n53_n24" />
			<state id="s05_n24_n6" />
			<state id="s06_n6_21" />
			<state id="s07_21_37" />
			<state id="s08_37_57" />
			<state id="s09_57_99" />
			<state id="s10_99_up" />
			<parents>VE_PDOF_TR OA_MAIS</parents>
			<probabilities>0.0005555555555555554 0.0005555555555555554 0.0005555555555555554 0.0005555555555555554 0.01166666666666667 0.7727777777777779 0.1616666666666667 0.03944444444444445 0.01166666666666667 0.0005555555555555554 0.003846153846153844 0.003846153846153844 0.003846153846153844 0.003846153846153844 0.0423076923076923 0.6576923076923077 0.2346153846153846 0.003846153846153844 0.0423076923076923 0.003846153846153844 0.01428571428571428 0.01428571428571428 0.01428571428571428 0.01428571428571428 0.01428571428571428 0.3 0.3 0.1571428571428571 0.1571428571428571 0.01428571428571428 0.01 0.01 0.01 0.01 0.01 0.4100000000000001 0.4100000000000001 0.11 0.01 0.01 0.1 0.1 0.1 0.1 0.1 0.1 0.1 0.1 0.1 0.1 7.898894154818322e-05 7.898894154818322e-05 7.898894154818322e-05 7.898894154818322e-05 0.006398104265402843 0.7899684044233808 0.1857030015797788 0.01666666666666667 7.898894154818322e-05 0.0008688783570300157 0.0003472222222222221 0.0003472222222222221 0.0003472222222222221 0.003819444444444444 0.003819444444444444 0.4413194444444444 0.4065972222222222 0.1253472222222222 0.01770833333333333 0.0003472222222222221 0.001515151515151515 0.001515151515151515 0.001515151515151515 0.001515151515151515 0.001515151515151515 0.3651515151515152 0.3803030303030303 0.2136363636363636 0.03181818181818182 0.001515151515151515 0.00238095238095238 0.00238095238095238 0.00238095238095238 0.00238095238095238 0.00238095238095238 0.2404761904761905 0.4071428571428571 0.2642857142857142 0.07380952380952381 0.00238095238095238 0.008333333333333331 0.008333333333333331 0.008333333333333331 0.008333333333333331 0.008333333333333331 0.5916666666666667 0.175 0.175 0.008333333333333331 0.008333333333333331 0.0001127395715896279 0.0001127395715896279 0.0001127395715896279 0.001957568924874449 0.07001127395715895 0.9121758737316796 0.01415394076047965 0.0009326637286051038 0.0003177206108434969 0.0001127395715896279 6.285355122564425e-05 6.285355122564425e-05 0.0006913890634820869 0.004462602137020743 0.08868636077938406 0.8592708988057828 0.04343180389692019 0.003205531112507858 6.285355122564425e-05 6.285355122564425e-05 0.0006410256410256409 0.0006410256410256409 0.0006410256410256409 0.01346153846153847 0.06474358974358976 0.769871794871795 0.1352564102564103 0.01346153846153847 0.0006410256410256409 0.0006410256410256409 0.0009174311926605504 0.0009174311926605504 0.0009174311926605504 0.05596330275229359 0.0651376146788991 0.734862385321101 0.1110091743119266 0.02844036697247707 0.0009174311926605504 0.0009174311926605504 0.002083333333333332 0.002083333333333332 0.002083333333333332 0.02291666666666666 0.1479166666666666 0.6687499999999998 0.1270833333333333 0.02291666666666666 0.002083333333333332 0.002083333333333332 3.357958361316319e-05 3.357958361316319e-05 0.001376762928139691 0.08297515110812625 0.6736400268636669 0.2367696440564137 0.004398925453324379 0.0007051712558764272 3.357958361316319e-05 3.357958361316319e-05 0.00260047281323877 0.007328605200945625 0.02151300236406619 0.2082742316784869 0.6243498817966903 0.1302600472813238 0.004964539007092198 0.0002364066193853426 0.0002364066193853426 0.0002364066193853426 0.001923076923076922 0.001923076923076922 0.02115384615384615 0.5211538461538461 0.2903846153846154 0.1557692307692307 0.001923076923076922 0.001923076923076922 0.001923076923076922 0.001923076923076922 0.00263157894736842 0.00263157894736842 0.1342105263157894 0.3973684210526315 0.2921052631578947 0.1342105263157894 0.00263157894736842 0.02894736842105263 0.00263157894736842 0.00263157894736842 0.006249999999999999 0.006249999999999999 0.1937500000000001 0.31875 0.06875000000000001 0.3812500000000001 0.006249999999999999 0.006249999999999999 0.006249999999999999 0.006249999999999999 0.000543478260869565 0.000543478260869565 0.000543478260869565 0.1744565217391304 0.4679347826086956 0.3375 0.01684782608695652 0.000543478260869565 0.000543478260869565 0.000543478260869565 0.004545454545454544 0.09545454545454546 0.05 0.4136363636363636 0.3681818181818182 0.05 0.004545454545454544 0.004545454545454544 0.004545454545454544 0.004545454545454544 0.009090909090909089 0.009090909090909089 0.1 0.2818181818181819 0.1909090909090909 0.3727272727272727 0.009090909090909089 0.009090909090909089 0.009090909090909089 0.009090909090909089 0.01666666666666667 0.01666666666666667 0.01666666666666667 0.8500000000000002 0.01666666666666667 0.01666666666666667 0.01666666666666667 0.01666666666666667 0.01666666666666667 0.01666666666666667 0.01428571428571428 0.4428571428571429 0.1571428571428571 0.01428571428571428 0.01428571428571428 0.3 0.01428571428571428 0.01428571428571428 0.01428571428571428 0.01428571428571428 5.636978579481398e-05 0.0006200676437429539 0.0006200676437429539 0.01414881623449831 0.07897406989853441 0.9042277339346113 0.001183765501691094 5.636978579481398e-05 5.636978579481398e-05 5.636978579481398e-05 0.0008130081300813008 0.0008130081300813008 0.0008130081300813008 0.03333333333333334 0.1065040650406504 0.8463414634146343 0.0008130081300813008 0.008943089430894311 0.0008130081300813008 0.0008130081300813008 0.006666666666666665 0.006666666666666665 0.006666666666666665 0.006666666666666665 0.2066666666666667 0.7400000000000001 0.006666666666666665 0.006666666666666665 0.006666666666666665 0.006666666666666665 0.005555555555555553 0.005555555555555553 0.005555555555555553 0.0611111111111111 0.1166666666666667 0.7277777777777777 0.0611111111111111 0.005555555555555553 0.005555555555555553 0.005555555555555553 0.01428571428571429 0.01428571428571429 0.1571428571428572 0.01428571428571429 0.01428571428571429 0.5857142857142859 0.01428571428571429 0.1571428571428572 0.01428571428571429 0.01428571428571429</probabilities>
		</cpt>
		<cpt id="GV_SPLIMIT">
			<state id="s1_below_17" />
			<state id="s2_17_37" />
			<state id="s3_37_57" />
			<state id="s4_57_up" />
			<parents>VE_PDOF_TR OA_MAIS</parents>
			<probabilities>0.01805555555555556 0.5013888888888889 0.3902777777777778 0.09027777777777778 0.009615384615384616 0.2788461538461539 0.4326923076923077 0.2788461538461539 0.03571428571428571 0.3214285714285714 0.3214285714285714 0.3214285714285714 0.125 0.325 0.525 0.025 0.25 0.25 0.25 0.25 0.03811216429699842 0.6005134281200631 0.3335308056872038 0.0278436018957346 0.04253472222222222 0.5217013888888888 0.4105902777777777 0.02517361111111111 0.03409090909090909 0.4583333333333334 0.4734848484848485 0.03409090909090909 0.02976190476190476 0.5059523809523809 0.3630952380952381 0.1011904761904762 0.02083333333333333 0.3541666666666666 0.5208333333333333 0.1041666666666667 0.008327354719688429 0.4540586245772266 0.4802961976017219 0.05731782310136313 0.002042740414833438 0.3477372721558768 0.5608108108108109 0.08940917661847894 0.008012820512820512 0.3157051282051282 0.5721153846153846 0.1041666666666667 0.002293577981651376 0.2408256880733945 0.6536697247706422 0.1032110091743119 0.005208333333333333 0.171875 0.6927083333333333 0.1302083333333333 0.006464069845533916 0.4994123572867697 0.4594526527871055 0.034670920080591 0.002955082742316785 0.3953900709219858 0.5656028368794326 0.03605200945626477 0.02403846153846154 0.3317307692307693 0.5817307692307693 0.0625 0.03289473684210526 0.2434210526315789 0.7171052631578947 0.006578947368421052 0.015625 0.140625 0.765625 0.078125 0.01222826086956522 0.452445652173913 0.4361413043478261 0.09918478260869565 0.05681818181818182 0.375 0.5113636363636364 0.05681818181818182 0.02272727272727273 0.4772727272727273 0.2954545454545455 0.2045454545454546 0.04166666666666666 0.375 0.5416666666666666 0.04166666666666666 0.03571428571428571 0.3214285714285714 0.4642857142857142 0.1785714285714285 0.002959413754227734 0.314684329199549 0.5260710259301015 0.1562852311161217 0.01829268292682927 0.1646341463414634 0.5060975609756098 0.3109756097560976 0.08333333333333333 0.08333333333333333 0.4166666666666667 0.4166666666666667 0.01388888888888889 0.06944444444444445 0.4583333333333333 0.4583333333333333 0.03571428571428571 0.1785714285714285 0.75 0.03571428571428571</probabilities>
		</cpt>
		<cpt id="GV_LANES">
			<state id="s1_below_2" />
			<state id="s2_2_4" />
			<state id="s3_4_6" />
			<state id="s4_6_up" />
			<parents>GV_SPLIMIT OA_MAIS</parents>
			<probabilities>0.6682389937106918 0.2720125786163522 0.05817610062893082 0.001572327044025157 0.7125 0.2625 0.0125 0.0125 0.875 0.04166666666666666 0.04166666666666666 0.04166666666666666 0.8125 0.0625 0.0625 0.0625 0.25 0.25 0.25 0.25 0.4558307463895263 0.350283439060602 0.1726616277500338 0.02122418679983804 0.4638520971302428 0.3600993377483444 0.1459713024282561 0.03007726269315673 0.5452380952380953 0.3071428571428572 0.1261904761904762 0.02142857142857143 0.5119047619047619 0.3214285714285714 0.1468253968253968 0.01984126984126984 0.4027777777777777 0.4583333333333333 0.06944444444444445 0.06944444444444445 0.3381283068783069 0.423181216931217 0.2166997354497355 0.02199074074074074 0.4372188905547226 0.3517616191904048 0.1913418290854573 0.01967766116941529 0.5138888888888888 0.353395061728395 0.125 0.007716049382716049 0.5096153846153847 0.4019230769230769 0.08653846153846154 0.001923076923076923 0.4708333333333333 0.4041666666666667 0.07083333333333333 0.05416666666666667 0.2926164519326065 0.4759663032705649 0.2262140733399405 0.005203171456888008 0.3755924170616114 0.4893364928909953 0.1291469194312796 0.005924170616113745 0.4140625 0.5078125 0.0703125 0.0078125 0.34375 0.5104166666666666 0.1354166666666667 0.01041666666666667 0.525 0.225 0.225 0.025</probabilities>
		</cpt>
		<cpt id="GV_OTVEHWGT">
			<state id="s01_below_760" />
			<state id="s02_760_1355" />
			<state id="s03_1355_1655" />
			<state id="s04_1655_1995" />
			<state id="s05_1995_2255" />
			<state id="s06_2255_2835" />
			<state id="s07_2835_3320" />
			<state id="s08_3320_3730" />
			<state id="s09_3730_4215" />
			<state id="s10_4215_up" />
			<parents>GV_DVLONG OA_MAIS</parents>
			<probabilities>0.03333333333333333 0.3666666666666666 0.03333333333333333 0.03333333333333333 0.03333333333333333 0.3666666666666666 0.03333333333333333 0.03333333333333333 0.03333333333333333 0.03333333333333333 0.1 0.1 0.1 0.1 0.1 0.1 0.1 0.1 0.1 0.1 0.1 0.1 0.1 0.1 0.1 0.1 0.1 0.1 0.1 0.1 0.05 0.05 0.05 0.5500000000000002 0.05 0.05 0.05 0.05 0.05 0.05 0.1 0.1 0.1 0.1 0.1 0.1 0.1 0.1 0.1 0.1 0.03333333333333333 0.03333333333333333 0.3666666666666666 0.03333333333333333 0.3666666666666666 0.03333333333333333 0.03333333333333333 0.03333333333333333 0.03333333333333333 0.03333333333333333 0.05 0.5500000000000002 0.05 0.05 0.05 0.05 0.05 0.05 0.05 0.05 0.05 0.05 0.05 0.5500000000000002 0.05 0.05 0.05 0.05 0.05 0.05 0.03333333333333332 0.03333333333333332 0.7 0.03333333333333332 0.03333333333333332 0.03333333333333332 0.03333333333333332 0.03333333333333332 0.03333333333333332 0.03333333333333332 0.1 0.1 0.1 0.1 0.1 0.1 0.1 0.1 0.1 0.1 0.01666666666666667 0.1833333333333333 0.3500000000000001 0.01666666666666667 0.1833333333333333 0.1833333333333333 0.01666666666666667 0.01666666666666667 0.01666666666666667 0.01666666666666667 0.009090909090909089 0.009090909090909089 0.2818181818181819 0.1 0.1909090909090909 0.3727272727272727 0.009090909090909089 0.009090909090909089 0.009090909090909089 0.009090909090909089 0.01111111111111111 0.1222222222222222 0.3444444444444445 0.4555555555555556 0.01111111111111111 0.01111111111111111 0.01111111111111111 0.01111111111111111 0.01111111111111111 0.01111111111111111 0.0125 0.0125 0.1375 0.3875 0.2625 0.1375 0.0125 0.0125 0.0125 0.0125 0.009999999999999997 0.21 0.3100000000000001 0.21 0.21 0.009999999999999997 0.009999999999999997 0.009999999999999997 0.009999999999999997 0.009999999999999997 0.0009433962264150939 0.2367924528301887 0.3028301886792453 0.2367924528301887 0.1330188679245283 0.0669811320754717 0.01981132075471698 0.0009433962264150939 0.0009433962264150939 0.0009433962264150939 0.0007352941176470586 0.1772058823529412 0.3169117647058823 0.2066176470588235 0.1477941176470588 0.1110294117647059 0.03014705882352941 0.008088235294117646 0.0007352941176470586 0.0007352941176470586 0.00357142857142857 0.1107142857142857 0.325 0.325 0.00357142857142857 0.1107142857142857 0.075 0.00357142857142857 0.00357142857142857 0.03928571428571428 0.003124999999999999 0.096875 0.190625 0.409375 0.096875 0.128125 0.034375 0.003124999999999999 0.034375 0.003124999999999999 0.004545454545454544 0.1863636363636363 0.3227272727272727 0.2772727272727273 0.004545454545454544 0.1409090909090909 0.05 0.004545454545454544 0.004545454545454544 0.004545454545454544 0.0003948312993539124 0.2609834888729362 0.3417444364680546 0.2333452979181622 0.08223259152907395 0.07397702799712851 0.006496769562096196 3.58937544867193e-05 0.0003948312993539124 0.0003948312993539124 0.0001172332942555685 0.1982415005861665 0.3588511137162954 0.2451348182883939 0.1044548651817116 0.07749120750293081 0.01301289566236811 0.001289566236811254 0.001289566236811254 0.0001172332942555685 0.001030927835051546 0.1762886597938144 0.2484536082474227 0.320618556701031 0.1144329896907216 0.1247422680412371 0.001030927835051546 0.001030927835051546 0.01134020618556701 0.001030927835051546 0.001612903225806451 0.1145161290322581 0.3725806451612904 0.2435483870967742 0.1629032258064516 0.08225806451612902 0.01774193548387096 0.001612903225806451 0.001612903225806451 0.001612903225806451 0.00434782608695652 0.1347826086956522 0.3521739130434782 0.1782608695652174 0.2217391304347826 0.09130434782608696 0.00434782608695652 0.00434782608695652 0.00434782608695652 0.00434782608695652 0.0007295982705818771 0.2738335435056746 0.347423887587822 0.2327598630877319 0.07431994235272923 0.06369122680598091 0.00595388218339038 0.0005494505494505495 0.0004593766888848856 0.0002792289677535579 0.0008416220351951031 0.2028309104820199 0.3497322111706198 0.2273144605967865 0.101071155317521 0.1048967100229533 0.01002295332823259 0.0008416220351951031 0.0008416220351951031 0.001606732976281561 0.0007194244604316545 0.1517985611510791 0.2165467625899281 0.281294964028777 0.1589928057553957 0.1517985611510791 0.01510791366906475 0.007913669064748202 0.0007194244604316545 0.01510791366906475 0.001123595505617977 0.1134831460674157 0.2820224719101124 0.3269662921348315 0.09101123595505617 0.1584269662921348 0.02359550561797753 0.001123595505617977 0.001123595505617977 0.001123595505617977 0.003703703703703702 0.003703703703703702 0.337037037037037 0.2259259259259259 0.1518518518518518 0.1888888888888889 0.07777777777777778 0.003703703703703702 0.003703703703703702 0.003703703703703702 0.002093180283592168 0.2512491559756921 0.3410533423362593 0.2154625253207293 0.08784604996623903 0.08649561107359892 0.01357191087103309 6.752194463200538e-05 0.002093180283592168 6.752194463200538e-05 0.001041666666666666 0.1989583333333333 0.3760416666666667 0.2614583333333333 0.1052083333333333 0.05312499999999999 0.001041666666666666 0.001041666666666666 0.001041666666666666 0.001041666666666666 0.00476190476190476 0.1476190476190476 0.4809523809523809 0.1 0.1476190476190476 0.1 0.00476190476190476 0.00476190476190476 0.00476190476190476 0.00476190476190476 0.00526315789473684 0.1105263157894737 0.3736842105263157 0.1105263157894737 0.1105263157894737 0.2684210526315789 0.00526315789473684 0.00526315789473684 0.00526315789473684 0.00526315789473684 0.01428571428571428 0.1571428571428571 0.1571428571428571 0.3 0.01428571428571428 0.3 0.01428571428571428 0.01428571428571428 0.01428571428571428 0.01428571428571428 0.0001976284584980236 0.191897233201581 0.3164031620553359 0.2452569169960474 0.1345849802371541 0.08913043478260869 0.01403162055335968 0.006126482213438735 0.00217391304347826 0.0001976284584980236 0.002564102564102563 0.182051282051282 0.2846153846153846 0.182051282051282 0.2076923076923077 0.1051282051282051 0.0282051282051282 0.002564102564102563 0.002564102564102563 0.002564102564102563 0.01666666666666667 0.01666666666666667 0.01666666666666667 0.6833333333333336 0.01666666666666667 0.1833333333333334 0.01666666666666667 0.01666666666666667 0.01666666666666667 0.01666666666666667 0.02 0.02 0.4200000000000001 0.4200000000000001 0.02 0.02 0.02 0.02 0.02 0.02 0.1 0.1 0.1 0.1 0.1 0.1 0.1 0.1 0.1 0.1 0.0006802721088435372 0.1843537414965986 0.3408163265306122 0.2183673469387755 0.1027210884353741 0.136734693877551 0.0006802721088435372 0.0006802721088435372 0.007482993197278911 0.007482993197278911 0.003333333333333332 0.1033333333333333 0.4033333333333333 0.27 0.03666666666666666 0.1366666666666667 0.003333333333333332 0.03666666666666666 0.003333333333333332 0.003333333333333332 0.01428571428571428 0.01428571428571428 0.1571428571428571 0.3 0.1571428571428571 0.3 0.01428571428571428 0.01428571428571428 0.01428571428571428 0.01428571428571428 0.02 0.02 0.22 0.22 0.4200000000000001 0.02 0.02 0.02 0.02 0.02 0.05 0.05 0.05 0.5500000000000002 0.05 0.05 0.05 0.05 0.05 0.05 0.03333333333333333 0.03333333333333333 0.3666666666666666 0.3666666666666666 0.03333333333333333 0.03333333333333333 0.03333333333333333 0.03333333333333333 0.03333333333333333 0.03333333333333333 0.05 0.05 0.05 0.05 0.05 0.05 0.5500000000000002 0.05 0.05 0.05 0.1 0.1 0.1 0.1 0.1 0.1 0.1 0.1 0.1 0.1 0.05 0.5500000000000002 0.05 0.05 0.05 0.05 0.05 0.05 0.05 0.05 0.1 0.1 0.1 0.1 0.1 0.1 0.1 0.1 0.1 0.1</probabilities>
		</cpt>
		<cpt id="OA_AGE">
			<state id="s1_below_11" />
			<state id="s2_11_28" />
			<state id="s3_28_44" />
			<state id="s4_44_56" />
			<state id="s5_56_64" />
			<state id="s6_64_76" />
			<state id="s7_76_up" />
			<parents>GV_CURBWGT OA_MAIS</parents>
			<probabilities>0.009523809523809523 0.3428571428571429 0.2761904761904762 0.07619047619047618 0.009523809523809523 0.2095238095238095 0.07619047619047618 0.1428571428571429 0.1428571428571429 0.1428571428571429 0.1428571428571429 0.1428571428571429 0.1428571428571429 0.1428571428571429 0.07142857142857144 0.07142857142857144 0.5714285714285715 0.07142857142857144 0.07142857142857144 0.07142857142857144 0.07142857142857144 0.1428571428571429 0.1428571428571429 0.1428571428571429 0.1428571428571429 0.1428571428571429 0.1428571428571429 0.1428571428571429 0.1428571428571429 0.1428571428571429 0.1428571428571429 0.1428571428571429 0.1428571428571429 0.1428571428571429 0.1428571428571429 0.0004084550188910445 0.49075870519759 0.2387930154191769 0.1315735729602777 0.05866435208822628 0.04865720412539568 0.03114469519044215 0.0002768549280177187 0.3995016611295681 0.2386489479512735 0.1669435215946844 0.07779623477297896 0.06810631229235881 0.04872646733111849 0.002070393374741201 0.3354037267080746 0.2049689440993789 0.1469979296066253 0.1614906832298137 0.1035196687370601 0.04554865424430643 0.002976190476190475 0.2529761904761904 0.2738095238095237 0.1488095238095238 0.06547619047619047 0.1279761904761905 0.1279761904761905 0.008928571428571428 0.3839285714285715 0.1339285714285714 0.1964285714285714 0.1964285714285714 0.07142857142857142 0.008928571428571428 0.0001483074413258685 0.3558451670312558 0.2786326053909755 0.1750769344851878 0.08333024359497236 0.06646027214415483 0.04050646991212784 0.0001196458482890644 0.2957645369705671 0.2614261785116057 0.187724335965542 0.09559703278296243 0.08805934434075137 0.07130892558028236 0.0009784735812133072 0.3160469667318982 0.1790606653620352 0.1448140900195695 0.09686888454011741 0.1037181996086106 0.1585127201565558 0.00117096018735363 0.3044496487119439 0.1814988290398127 0.2060889929742389 0.0503512880562061 0.08313817330210772 0.1733021077283372 0.002976190476190475 0.2113095238095238 0.3154761904761904 0.1696428571428571 0.1279761904761905 0.06547619047619047 0.1071428571428571 4.096849522717031e-05 0.2248760703019378 0.3734278339956573 0.2025072719079028 0.09152361833749846 0.07718464500798886 0.03043959195378753 0.0003007518796992481 0.2066165413533834 0.3076691729323308 0.2066165413533834 0.1055639097744361 0.09924812030075188 0.07398496240601504 0.002267573696145124 0.145124716553288 0.2244897959183673 0.2244897959183673 0.0816326530612245 0.1927437641723356 0.1292517006802721 0.003571428571428571 0.1785714285714286 0.2035714285714286 0.2035714285714286 0.1285714285714286 0.1785714285714286 0.1035714285714286 0.01020408163265306 0.2959183673469388 0.08163265306122448 0.1530612244897959 0.1530612244897959 0.08163265306122448 0.2244897959183673 8.554319931565441e-05 0.2114627887082977 0.4270316509837468 0.2162532078699744 0.08212147134302825 0.04858853721129171 0.0144568006843456 0.0006321112515802782 0.2262958280657396 0.3855878634639697 0.2041719342604299 0.09355246523388118 0.08027812895069533 0.009481668773704174 0.007142857142857143 0.2571428571428572 0.3071428571428572 0.2071428571428572 0.1571428571428571 0.05714285714285714 0.007142857142857143 0.01785714285714286 0.01785714285714286 0.5178571428571429 0.01785714285714286 0.01785714285714286 0.3928571428571428 0.01785714285714286 0.02040816326530612 0.02040816326530612 0.1632653061224489 0.7346938775510202 0.02040816326530612 0.02040816326530612 0.02040816326530612 0.0004699248120300751 0.2373120300751879 0.382048872180451 0.2603383458646616 0.05968045112781954 0.04981203007518796 0.01033834586466165 0.003484320557491289 0.1254355400696864 0.4912891986062717 0.2473867595818815 0.1010452961672474 0.003484320557491289 0.02787456445993031 0.02040816326530612 0.02040816326530612 0.4489795918367347 0.163265306122449 0.163265306122449 0.163265306122449 0.02040816326530612 0.07142857142857144 0.5714285714285715 0.07142857142857144 0.07142857142857144 0.07142857142857144 0.07142857142857144 0.07142857142857144 0.02857142857142856 0.2285714285714285 0.6285714285714284 0.02857142857142856 0.02857142857142856 0.02857142857142856 0.02857142857142856 0.001152073732718894 0.2672811059907834 0.3237327188940092 0.2753456221198157 0.07373271889400922 0.0576036866359447 0.001152073732718894 0.01020408163265306 0.1530612244897959 0.4387755102040816 0.2959183673469388 0.08163265306122448 0.01020408163265306 0.01020408163265306 0.1428571428571429 0.1428571428571429 0.1428571428571429 0.1428571428571429 0.1428571428571429 0.1428571428571429 0.1428571428571429 0.04761904761904762 0.04761904761904762 0.380952380952381 0.380952380952381 0.04761904761904762 0.04761904761904762 0.04761904761904762 0.1428571428571429 0.1428571428571429 0.1428571428571429 0.1428571428571429 0.1428571428571429 0.1428571428571429 0.1428571428571429 0.004926108374384237 0.2463054187192119 0.4532019704433498 0.2118226600985222 0.004926108374384237 0.07389162561576355 0.004926108374384237 0.02380952380952381 0.02380952380952381 0.3571428571428571 0.1904761904761905 0.02380952380952381 0.1904761904761905 0.1904761904761905 0.1428571428571429 0.1428571428571429 0.1428571428571429 0.1428571428571429 0.1428571428571429 0.1428571428571429 0.1428571428571429 0.1428571428571429 0.1428571428571429 0.1428571428571429 0.1428571428571429 0.1428571428571429 0.1428571428571429 0.1428571428571429 0.1428571428571429 0.1428571428571429 0.1428571428571429 0.1428571428571429 0.1428571428571429 0.1428571428571429 0.1428571428571429 0.02040816326530612 0.02040816326530612 0.5918367346938774 0.3061224489795917 0.02040816326530612 0.02040816326530612 0.02040816326530612 0.1428571428571429 0.1428571428571429 0.1428571428571429 0.1428571428571429 0.1428571428571429 0.1428571428571429 0.1428571428571429 0.1428571428571429 0.1428571428571429 0.1428571428571429 0.1428571428571429 0.1428571428571429 0.1428571428571429 0.1428571428571429 0.1428571428571429 0.1428571428571429 0.1428571428571429 0.1428571428571429 0.1428571428571429 0.1428571428571429 0.1428571428571429 0.1428571428571429 0.1428571428571429 0.1428571428571429 0.1428571428571429 0.1428571428571429 0.1428571428571429 0.1428571428571429 0.04761904761904762 0.04761904761904762 0.380952380952381 0.380952380952381 0.04761904761904762 0.04761904761904762 0.04761904761904762 0.04761904761904762 0.380952380952381 0.04761904761904762 0.380952380952381 0.04761904761904762 0.04761904761904762 0.04761904761904762 0.1428571428571429 0.1428571428571429 0.1428571428571429 0.1428571428571429 0.1428571428571429 0.1428571428571429 0.1428571428571429 0.1428571428571429 0.1428571428571429 0.1428571428571429 0.1428571428571429 0.1428571428571429 0.1428571428571429 0.1428571428571429 0.1428571428571429 0.1428571428571429 0.1428571428571429 0.1428571428571429 0.1428571428571429 0.1428571428571429 0.1428571428571429</probabilities>
		</cpt>
		<cpt id="OA_WEIGHT">
			<state id="s1_below_62" />
			<state id="s2_62_80" />
			<state id="s3_80_96" />
			<state id="s4_96_114" />
			<state id="s5_114_130" />
			<state id="s6_130_up" />
			<parents>OA_AGE OA_MAIS</parents>
			<probabilities>0.3888888888888889 0.05555555555555555 0.3888888888888889 0.05555555555555555 0.05555555555555555 0.05555555555555555 0.1666666666666667 0.1666666666666667 0.1666666666666667 0.1666666666666667 0.1666666666666667 0.1666666666666667 0.1666666666666667 0.1666666666666667 0.1666666666666667 0.1666666666666667 0.1666666666666667 0.1666666666666667 0.1666666666666667 0.1666666666666667 0.1666666666666667 0.1666666666666667 0.1666666666666667 0.1666666666666667 0.1666666666666667 0.1666666666666667 0.1666666666666667 0.1666666666666667 0.1666666666666667 0.1666666666666667 0.3056176288019863 0.3853196772191185 0.201893234016139 0.07842954686530106 0.01846679081315953 0.01027312228429547 0.2875406787540679 0.3865643886564389 0.1968851696885169 0.08670385867038587 0.02673175267317527 0.01557415155741515 0.2996031746031746 0.3829365079365079 0.2043650793650794 0.07341269841269842 0.01388888888888889 0.02579365079365079 0.2959770114942529 0.3649425287356322 0.2097701149425287 0.08908045977011494 0.002873563218390805 0.03735632183908046 0.3257575757575758 0.3712121212121212 0.05303030303030303 0.09848484848484848 0.143939393939394 0.007575757575757576 0.195082185399614 0.3502029679909496 0.2693485060224928 0.1292007719438344 0.0319757769348506 0.02418979170825846 0.1781444285031086 0.3230511716881875 0.295791487326638 0.1164514586322334 0.0504543280726925 0.03610712577714013 0.141025641025641 0.2948717948717949 0.1871794871794872 0.2333333333333333 0.06410256410256411 0.0794871794871795 0.1666666666666667 0.3095238095238095 0.2891156462585034 0.1258503401360545 0.04421768707482993 0.06462585034013606 0.09420289855072461 0.3115942028985507 0.2246376811594203 0.1376811594202898 0.09420289855072461 0.1376811594202898 0.161336542870243 0.349094452086199 0.3006075194864741 0.1348578633654287 0.03238193489225127 0.02172168729940395 0.1256192498230715 0.3167020523708421 0.3209483368719037 0.1510969568294409 0.04493984430290163 0.04069355980184006 0.1405228758169935 0.2581699346405229 0.2973856209150327 0.2581699346405229 0.02287581699346406 0.02287581699346406 0.09920634920634924 0.3373015873015874 0.09920634920634924 0.2658730158730159 0.09920634920634924 0.09920634920634924 0.008771929824561401 0.2192982456140351 0.3245614035087719 0.2719298245614035 0.06140350877192981 0.1140350877192982 0.1334625322997416 0.322609819121447 0.3249354005167958 0.1574935400516796 0.03966408268733849 0.02183462532299741 0.1349206349206349 0.3167388167388168 0.2691197691197691 0.1782106782106782 0.05699855699855699 0.04401154401154401 0.1476190476190476 0.3761904761904762 0.2047619047619048 0.1476190476190476 0.06190476190476191 0.06190476190476191 0.07777777777777778 0.1444444444444444 0.4111111111111111 0.2111111111111111 0.01111111111111111 0.1444444444444444 0.01388888888888889 0.09722222222222222 0.3472222222222222 0.3472222222222222 0.01388888888888889 0.1805555555555555 0.132716049382716 0.3910006497725796 0.305230669265757 0.1278427550357375 0.02940220922677063 0.01380766731643925 0.1650563607085346 0.319645732689211 0.2954911433172303 0.1360708534621578 0.03462157809983897 0.04911433172302737 0.0855855855855856 0.2477477477477478 0.4099099099099099 0.1666666666666667 0.0855855855855856 0.004504504504504505 0.191358024691358 0.3024691358024691 0.3024691358024691 0.191358024691358 0.006172839506172839 0.006172839506172839 0.02777777777777778 0.361111111111111 0.1944444444444444 0.1944444444444444 0.02777777777777778 0.1944444444444444 0.183832709113608 0.4984394506866417 0.2437578027465668 0.06210986267166042 0.007802746566791511 0.004057428214731585 0.1944444444444445 0.4544444444444445 0.2677777777777778 0.06111111111111111 0.02111111111111111 0.001111111111111111 0.1476190476190476 0.4619047619047619 0.2904761904761904 0.0619047619047619 0.03333333333333333 0.004761904761904761 0.2864583333333333 0.4114583333333333 0.1302083333333333 0.06770833333333333 0.005208333333333333 0.09895833333333333 0.2407407407407408 0.3518518518518519 0.1296296296296297 0.2407407407407408 0.01851851851851852 0.01851851851851852</probabilities>
		</cpt>
		<cpt id="OA_HEIGHT">
			<state id="s1_below_97" />
			<state id="s2_97_138" />
			<state id="s3_138_171" />
			<state id="s4_171_186" />
			<state id="s5_186_208" />
			<state id="s6_208_up" />
			<parents>OA_WEIGHT OA_MAIS</parents>
			<probabilities>0.001192179303767287 0.001478302336671436 0.8918931807343825 0.1033381020505484 0.002050548402479733 4.768717215069147e-05 0.0003443526170798897 0.004476584022038567 0.9176997245179062 0.07472451790633607 0.002410468319559228 0.0003443526170798897 0.003030303030303031 0.003030303030303031 0.8393939393939396 0.1484848484848485 0.003030303030303031 0.003030303030303031 0.003703703703703704 0.003703703703703704 0.9592592592592594 0.02592592592592593 0.003703703703703704 0.003703703703703704 0.01388888888888889 0.01388888888888889 0.7638888888888891 0.1805555555555556 0.01388888888888889 0.01388888888888889 0.001547900484070697 0.001210176742091636 0.5893560733986266 0.3846954857593156 0.02299335809974108 0.0001970055161544523 0.0001940240589833139 0.0001940240589833139 0.5904152114862243 0.3913465269693442 0.01765618936748157 0.0001940240589833139 0.001618122977346278 0.001618122977346278 0.564724919093851 0.4093851132686084 0.02103559870550161 0.001618122977346278 0.002252252252252252 0.002252252252252252 0.5563063063063063 0.4346846846846847 0.002252252252252252 0.002252252252252252 0.006410256410256408 0.006410256410256408 0.737179487179487 0.2371794871794871 0.006410256410256408 0.006410256410256408 0.0007592104211619914 0.0007592104211619914 0.3162710780787981 0.5939023415647726 0.08826820107088627 3.995844321905218e-05 0.004783484390735146 0.0002517623363544814 0.3567472306143001 0.5712487411883183 0.06671701913393756 0.0002517623363544814 0.01515151515151515 0.002164502164502165 0.2619047619047619 0.6645021645021645 0.05411255411255412 0.002164502164502165 0.003401360544217687 0.003401360544217687 0.2482993197278911 0.6360544217687074 0.1054421768707483 0.003401360544217687 0.008771929824561403 0.008771929824561403 0.3771929824561404 0.587719298245614 0.008771929824561403 0.008771929824561403 0.001185266229029905 0.000638220277169949 0.2599380014587892 0.5542487235594457 0.1833515681983953 0.000638220277169949 0.0005688282138794084 0.0005688282138794084 0.3009101251422071 0.5500568828213879 0.1473265073947668 0.0005688282138794084 0.003472222222222222 0.003472222222222222 0.2951388888888888 0.5451388888888888 0.1493055555555556 0.003472222222222222 0.00505050505050505 0.00505050505050505 0.2171717171717172 0.5808080808080809 0.1868686868686869 0.00505050505050505 0.009259259259259259 0.009259259259259259 0.2314814814814815 0.6759259259259258 0.06481481481481481 0.009259259259259259 0.0003796507213363705 0.0003796507213363705 0.2145026575550494 0.5129081245254365 0.2691723614274867 0.002657555049354594 0.001683501683501684 0.001683501683501684 0.2643097643097643 0.5269360269360269 0.2037037037037037 0.001683501683501684 0.01282051282051282 0.01282051282051282 0.01282051282051282 0.9358974358974359 0.01282051282051282 0.01282051282051282 0.02380952380952381 0.02380952380952381 0.3095238095238095 0.4523809523809523 0.1666666666666667 0.02380952380952381 0.02380952380952381 0.02380952380952381 0.3095238095238095 0.4523809523809523 0.1666666666666667 0.02380952380952381 0.0005868544600938967 0.004107981220657277 0.1801643192488263 0.5710093896713615 0.2435446009389672 0.0005868544600938967 0.002192982456140351 0.002192982456140351 0.2521929824561404 0.6206140350877193 0.1206140350877193 0.002192982456140351 0.01515151515151515 0.01515151515151515 0.4696969696969697 0.3787878787878788 0.1060606060606061 0.01515151515151515 0.01111111111111111 0.01111111111111111 0.2111111111111111 0.6111111111111112 0.1444444444444445 0.01111111111111111 0.01851851851851852 0.01851851851851852 0.1296296296296297 0.3518518518518519 0.4629629629629631 0.01851851851851852</probabilities>
		</cpt>
		<cpt id="GV_FOOTPRINT">
			<state id="s1_below_2" />
			<state id="s2_2_4" />
			<state id="s3_4_5" />
			<state id="s4_5_6" />
			<state id="s5_6_7" />
			<state id="s6_7_up" />
			<parents>VE_ORIGAVTW OA_MAIS</parents>
			<probabilities>0.1666666666666667 0.1666666666666667 0.1666666666666667 0.1666666666666667 0.1666666666666667 0.1666666666666667 0.5833333333333334 0.08333333333333333 0.08333333333333333 0.08333333333333333 0.08333333333333333 0.08333333333333333 0.1666666666666667 0.1666666666666667 0.1666666666666667 0.1666666666666667 0.1666666666666667 0.1666666666666667 0.1666666666666667 0.1666666666666667 0.1666666666666667 0.1666666666666667 0.1666666666666667 0.1666666666666667 0.1666666666666667 0.1666666666666667 0.1666666666666667 0.1666666666666667 0.1666666666666667 0.1666666666666667 0.02653927813163483 0.9628450106157114 0.007430997876857751 0.001061571125265393 0.001061571125265393 0.001061571125265393 0.004761904761904762 0.9761904761904763 0.004761904761904762 0.004761904761904762 0.004761904761904762 0.004761904761904762 0.0238095238095238 0.7380952380952379 0.1666666666666666 0.0238095238095238 0.0238095238095238 0.0238095238095238 0.04166666666666667 0.7916666666666669 0.04166666666666667 0.04166666666666667 0.04166666666666667 0.04166666666666667 0.04166666666666667 0.7916666666666669 0.04166666666666667 0.04166666666666667 0.04166666666666667 0.04166666666666667 2.828214265512755e-05 0.9974828893036936 0.002234289269755076 0.0001979749985858929 2.828214265512755e-05 2.828214265512755e-05 0.0001690331304935768 0.9961122379986479 0.003211629479377958 0.0001690331304935768 0.0001690331304935768 0.0001690331304935768 0.001344086021505376 0.9932795698924731 0.001344086021505376 0.001344086021505376 0.001344086021505376 0.001344086021505376 0.001792114695340502 0.9802867383512545 0.01254480286738351 0.001792114695340502 0.001792114695340502 0.001792114695340502 0.004504504504504505 0.9774774774774776 0.004504504504504505 0.004504504504504505 0.004504504504504505 0.004504504504504505 2.531773760696744e-05 0.9567319864296925 0.04240721049167046 0.0006329434401741859 2.531773760696744e-05 0.0001772241632487721 0.000166333998669328 0.9662341982701265 0.03310046573519627 0.000166333998669328 0.000166333998669328 0.000166333998669328 0.001461988304093567 0.9576023391812866 0.03654970760233918 0.001461988304093567 0.001461988304093567 0.001461988304093567 0.001792114695340502 0.9695340501792115 0.02329749103942652 0.001792114695340502 0.001792114695340502 0.001792114695340502 0.005376344086021505 0.9408602150537635 0.03763440860215054 0.005376344086021505 0.005376344086021505 0.005376344086021505 6.918500069185e-05 0.3392140583921406 0.5127300401273004 0.1370554863705549 0.01086204510862045 6.918500069185e-05 0.0005257623554153522 0.3128286014721346 0.5399579390115667 0.1424815983175604 0.003680336487907466 0.0005257623554153522 0.003144654088050314 0.4371069182389937 0.3805031446540881 0.1163522012578616 0.05974842767295597 0.003144654088050314 0.00641025641025641 0.4294871794871795 0.3525641025641026 0.1987179487179487 0.00641025641025641 0.00641025641025641 0.0119047619047619 0.5119047619047619 0.2976190476190476 0.1547619047619047 0.0119047619047619 0.0119047619047619 0.0001559089491736826 0.07031493607733084 0.2274711568444029 0.5352354225132522 0.1339257873401933 0.03289678827564702 0.001282051282051282 0.03205128205128205 0.1935897435897436 0.6012820512820513 0.1551282051282051 0.01666666666666666 0.02083333333333333 0.1458333333333333 0.2708333333333333 0.3958333333333333 0.1458333333333333 0.02083333333333333 0.02777777777777778 0.1944444444444444 0.1944444444444444 0.361111111111111 0.1944444444444444 0.02777777777777778 0.04166666666666667 0.2916666666666667 0.04166666666666667 0.5416666666666667 0.04166666666666667 0.04166666666666667 0.005952380952380952 0.07738095238095237 0.2559523809523809 0.2916666666666666 0.1845238095238095 0.1845238095238095 0.08333333333333333 0.08333333333333333 0.08333333333333333 0.08333333333333333 0.5833333333333334 0.08333333333333333 0.1666666666666667 0.1666666666666667 0.1666666666666667 0.1666666666666667 0.1666666666666667 0.1666666666666667 0.1666666666666667 0.1666666666666667 0.1666666666666667 0.1666666666666667 0.1666666666666667 0.1666666666666667 0.1666666666666667 0.1666666666666667 0.1666666666666667 0.1666666666666667 0.1666666666666667 0.1666666666666667</probabilities>
		</cpt>
		<cpt id="VE_WHEELBAS">
			<state id="s1_below_164" />
			<state id="s2_164_234" />
			<state id="s3_234_318" />
			<state id="s4_318_375" />
			<state id="s5_375_464" />
			<state id="s6_464_up" />
			<parents>GV_FOOTPRINT OA_MAIS</parents>
			<probabilities>0.03333333333333333 0.8333333333333333 0.03333333333333333 0.03333333333333333 0.03333333333333333 0.03333333333333333 0.08333333333333333 0.08333333333333333 0.5833333333333334 0.08333333333333333 0.08333333333333333 0.08333333333333333 0.1666666666666667 0.1666666666666667 0.1666666666666667 0.1666666666666667 0.1666666666666667 0.1666666666666667 0.1666666666666667 0.1666666666666667 0.1666666666666667 0.1666666666666667 0.1666666666666667 0.1666666666666667 0.1666666666666667 0.1666666666666667 0.1666666666666667 0.1666666666666667 0.1666666666666667 0.1666666666666667 8.823677708869058e-05 0.001222709625371855 0.9845837745172189 0.01408006857258105 1.260525386981294e-05 1.260525386981294e-05 7.982120051085567e-05 0.001037675606641124 0.9799648786717752 0.01875798212005108 7.982120051085567e-05 7.982120051085567e-05 0.0006361323155216283 0.0006361323155216283 0.9777353689567428 0.01972010178117048 0.0006361323155216283 0.0006361323155216283 0.0008460236886632827 0.005922165820642979 0.9856175972927242 0.005922165820642979 0.0008460236886632827 0.0008460236886632827 0.002164502164502164 0.002164502164502164 0.989177489177489 0.002164502164502164 0.002164502164502164 0.002164502164502164 9.368559115608018e-05 9.368559115608018e-05 0.7853663106614202 0.2142589469739554 9.368559115608018e-05 9.368559115608018e-05 0.0007153075822603721 0.0007153075822603721 0.7689556509298999 0.2281831187410587 0.0007153075822603721 0.0007153075822603721 0.00595238095238095 0.00595238095238095 0.7559523809523808 0.2202380952380952 0.00595238095238095 0.00595238095238095 0.01190476190476191 0.01190476190476191 0.7261904761904764 0.2261904761904762 0.01190476190476191 0.01190476190476191 0.02777777777777778 0.02777777777777778 0.5277777777777777 0.361111111111111 0.02777777777777778 0.02777777777777778 0.0001819505094614265 0.0001819505094614265 0.001273653566229986 0.9903566229985445 0.007823871906841341 0.0001819505094614265 0.001344086021505376 0.001344086021505376 0.001344086021505376 0.9932795698924731 0.001344086021505376 0.001344086021505376 0.01666666666666667 0.01666666666666667 0.01666666666666667 0.9166666666666667 0.01666666666666667 0.01666666666666667 0.02083333333333333 0.02083333333333333 0.02083333333333333 0.8958333333333334 0.02083333333333333 0.02083333333333333 0.03333333333333333 0.03333333333333333 0.03333333333333333 0.8333333333333333 0.03333333333333333 0.03333333333333333 0.0009523809523809525 0.0009523809523809525 0.0009523809523809525 0.04666666666666667 0.9495238095238097 0.0009523809523809525 0.007246376811594201 0.007246376811594201 0.007246376811594201 0.05072463768115942 0.9202898550724636 0.007246376811594201 0.03333333333333333 0.03333333333333333 0.03333333333333333 0.03333333333333333 0.8333333333333333 0.03333333333333333 0.08333333333333333 0.08333333333333333 0.08333333333333333 0.08333333333333333 0.5833333333333334 0.08333333333333333 0.1666666666666667 0.1666666666666667 0.1666666666666667 0.1666666666666667 0.1666666666666667 0.1666666666666667 0.003968253968253969 0.003968253968253969 0.003968253968253969 0.003968253968253969 0.9563492063492065 0.02777777777777779 0.05555555555555556 0.05555555555555556 0.05555555555555556 0.05555555555555556 0.7222222222222222 0.05555555555555556 0.1666666666666667 0.1666666666666667 0.1666666666666667 0.1666666666666667 0.1666666666666667 0.1666666666666667 0.1666666666666667 0.1666666666666667 0.1666666666666667 0.1666666666666667 0.1666666666666667 0.1666666666666667 0.1666666666666667 0.1666666666666667 0.1666666666666667 0.1666666666666667 0.1666666666666667 0.1666666666666667</probabilities>
		</cpt>
		<cpt id="VE_GAD1">
			<state id="Front" />
			<state id="Left" />
			<state id="Rear" />
			<state id="Right" />
			<parents>VE_PDOF_TR OA_MAIS</parents>
			<probabilities>0.04583333333333334 0.9402777777777778 0.0125 0.001388888888888889 0.08653846153846154 0.8557692307692308 0.009615384615384616 0.04807692307692308 0.03571428571428571 0.8928571428571428 0.03571428571428571 0.03571428571428571 0.025 0.925 0.025 0.025 0.25 0.25 0.25 0.25 0.1874012638230648 0.8035150078988942 0.003357030015797788 0.005726698262243286 0.05295138888888889 0.9453125 0.0008680555555555555 0.0008680555555555555 0.03409090909090909 0.9583333333333334 0.003787878787878788 0.003787878787878788 0.02976190476190476 0.9583333333333333 0.005952380952380952 0.005952380952380952 0.02083333333333333 0.9375 0.02083333333333333 0.02083333333333333 0.8152352157425439 0.1501742338833658 0.004842677052372656 0.02974787332171774 0.8681646763042112 0.1271213073538655 0.0001571338780641106 0.004556882463859208 0.7451923076923077 0.2451923076923077 0.001602564102564103 0.008012820512820512 0.7729357798165138 0.2041284403669725 0.002293577981651376 0.02064220183486239 0.8802083333333333 0.109375 0.005208333333333333 0.005208333333333333 0.3674445936870383 0.06019140362659503 0.005120886501007387 0.5672431161853593 0.4332151300236406 0.01713947990543735 0.000591016548463357 0.5490543735224586 0.1586538461538462 0.02403846153846154 0.004807692307692308 0.8125 0.1644736842105263 0.006578947368421052 0.006578947368421052 0.8223684210526315 0.203125 0.015625 0.015625 0.765625 0.02309782608695652 0.05570652173913043 0.006793478260869565 0.9144021739130435 0.1022727272727273 0.01136363636363636 0.01136363636363636 0.875 0.02272727272727273 0.02272727272727273 0.02272727272727273 0.9318181818181819 0.04166666666666666 0.04166666666666666 0.04166666666666666 0.875 0.03571428571428571 0.03571428571428571 0.03571428571428571 0.8928571428571428 0.01761555806087937 0.1213359639233371 0.8051014656144306 0.05594701240135287 0.02642276422764228 0.09146341463414635 0.8231707317073171 0.05894308943089432 0.01666666666666667 0.15 0.75 0.08333333333333333 0.01388888888888889 0.06944444444444445 0.9027777777777777 0.01388888888888889 0.03571428571428571 0.1785714285714285 0.6071428571428571 0.1785714285714285</probabilities>
		</cpt>
		<cpt id="OA_BAGDEPLY">
			<state id="Deployed" />
			<state id="SNot_Deployed" />
			<parents>VE_GAD1 OA_MAIS</parents>
			<probabilities>0.6035480758923786 0.3964519241076214 0.891304347826087 0.108695652173913 0.9409448818897638 0.05905511811023622 0.983695652173913 0.01630434782608696 0.9673913043478261 0.03260869565217391 0.1778468586387435 0.8221531413612566 0.3912621359223301 0.6087378640776698 0.3918918918918919 0.6081081081081081 0.5547945205479452 0.4452054794520548 0.6944444444444444 0.3055555555555555 0.07309746328437917 0.9269025367156208 0.2696078431372549 0.7303921568627451 0.375 0.625 0.08823529411764705 0.9117647058823529 0.5 0.5 0.2375776397515528 0.7624223602484472 0.5374531835205992 0.4625468164794008 0.5545454545454546 0.4454545454545454 0.5 0.5 0.5750000000000001 0.425</probabilities>
		</cpt>
		<cpt id="OA_SEX">
			<state id="Female" />
			<state id="Male" />
			<parents>OA_HEIGHT OA_MAIS</parents>
			<probabilities>0.3947368421052632 0.6052631578947368 0.625 0.375 0.25 0.75 0.5 0.5 0.5 0.5 0.9166666666666666 0.08333333333333333 0.8333333333333333 0.1666666666666667 0.5 0.5 0.5 0.5 0.5 0.5 0.7652392652392652 0.2347607347607348 0.7702498107494322 0.2297501892505678 0.7465277777777778 0.2534722222222222 0.7110091743119267 0.2889908256880734 0.5 0.5 0.2040049102347706 0.7959950897652295 0.2082096933728981 0.7917903066271018 0.21875 0.78125 0.109375 0.890625 0.2236842105263158 0.7763157894736842 0.06431334622823985 0.9356866537717602 0.07142857142857142 0.9285714285714285 0.03333333333333333 0.9666666666666667 0.1 0.9 0.07142857142857142 0.9285714285714285 0.125 0.875 0.5 0.5 0.5 0.5 0.5 0.5 0.5 0.5</probabilities>
		</cpt>
		<cpt id="OA_MANUSE">
			<state id="State0" />
			<state id="State1" />
			<parents>OA_AGE OA_MAIS</parents>
			<probabilities>0.1666666666666667 0.8333333333333333 0.5 0.5 0.5 0.5 0.5 0.5 0.5 0.5 0.1250465549348231 0.8749534450651769 0.2726638772663877 0.7273361227336123 0.2559523809523809 0.744047619047619 0.4224137931034483 0.5775862068965517 0.3409090909090909 0.6590909090909091 0.08794170493112398 0.912058295068876 0.2546628407460546 0.7453371592539455 0.3769230769230769 0.6230769230769231 0.4387755102040816 0.5612244897959183 0.3695652173913043 0.6304347826086957 0.0655089408528198 0.9344910591471802 0.1794055201698514 0.8205944798301487 0.1862745098039216 0.8137254901960784 0.3214285714285714 0.6785714285714285 0.3947368421052632 0.6052631578947368 0.04844961240310078 0.9515503875968992 0.145021645021645 0.8549783549783549 0.1285714285714286 0.8714285714285714 0.3 0.7 0.375 0.625 0.0550682261208577 0.9449317738791423 0.142512077294686 0.8574879227053139 0.1486486486486487 0.8513513513513514 0.2407407407407407 0.7592592592592592 0.5833333333333333 0.4166666666666666 0.06460674157303371 0.9353932584269663 0.1833333333333333 0.8166666666666668 0.1571428571428571 0.8428571428571429 0.296875 0.703125 0.3888888888888888 0.611111111111111</probabilities>
		</cpt>
		<cpt id="GV_WGTCDTR">
			<state id="SPassenger_Car" />
			<state id="STruck____10000_lbs__" />
			<state id="STruck____6000_lbs__" />
			<parents>GV_CURBWGT OA_MAIS</parents>
			<probabilities>0.6222222222222222 0.02222222222222222 0.3555555555555555 0.3333333333333333 0.3333333333333333 0.3333333333333333 0.6666666666666667 0.1666666666666667 0.1666666666666667 0.3333333333333333 0.3333333333333333 0.3333333333333333 0.3333333333333333 0.3333333333333333 0.3333333333333333 0.9833214200619489 0.0008339289969025494 0.01584465094114844 0.985142118863049 0.0006459948320413436 0.01421188630490956 0.9613526570048311 0.004830917874396136 0.03381642512077296 0.9444444444444443 0.006944444444444442 0.0486111111111111 0.8958333333333334 0.02083333333333333 0.08333333333333333 0.8173284886235834 0.0006921013928540532 0.1819794099835626 0.77749860413177 0.001116694584031267 0.2213847012841988 0.8721461187214611 0.00228310502283105 0.1255707762557078 0.8224043715846995 0.00273224043715847 0.1748633879781421 0.8402777777777777 0.006944444444444442 0.1527777777777777 0.2103049421661409 0.09100468406462096 0.6986903737692381 0.223859649122807 0.1143859649122807 0.6617543859649122 0.2592592592592592 0.06878306878306878 0.671957671957672 0.3083333333333333 0.1583333333333333 0.5333333333333333 0.4523809523809523 0.02380952380952381 0.5238095238095237 0.01457085828343314 0.7930139720558883 0.1924151696606787 0.0191740412979351 0.7890855457227137 0.191740412979351 0.06666666666666667 0.7166666666666668 0.2166666666666667 0.04166666666666667 0.7916666666666669 0.1666666666666667 0.1904761904761905 0.4761904761904762 0.3333333333333333 0.01096491228070176 0.9385964912280703 0.05043859649122808 0.05691056910569105 0.8861788617886178 0.05691056910569105 0.04761904761904762 0.761904761904762 0.1904761904761905 0.1666666666666667 0.6666666666666667 0.1666666666666667 0.06666666666666667 0.4666666666666667 0.4666666666666667 0.03494623655913979 0.9462365591397851 0.01881720430107527 0.02380952380952381 0.9523809523809523 0.02380952380952381 0.3333333333333333 0.3333333333333333 0.3333333333333333 0.1111111111111111 0.7777777777777777 0.1111111111111111 0.3333333333333333 0.3333333333333333 0.3333333333333333 0.04597701149425288 0.8735632183908048 0.08045977011494256 0.05555555555555556 0.888888888888889 0.05555555555555556 0.3333333333333333 0.3333333333333333 0.3333333333333333 0.3333333333333333 0.3333333333333333 0.3333333333333333 0.3333333333333333 0.3333333333333333 0.3333333333333333 0.04761904761904762 0.761904761904762 0.1904761904761905 0.3333333333333333 0.3333333333333333 0.3333333333333333 0.3333333333333333 0.3333333333333333 0.3333333333333333 0.3333333333333333 0.3333333333333333 0.3333333333333333 0.3333333333333333 0.3333333333333333 0.3333333333333333 0.1111111111111111 0.7777777777777777 0.1111111111111111 0.1111111111111111 0.7777777777777777 0.1111111111111111 0.3333333333333333 0.3333333333333333 0.3333333333333333 0.3333333333333333 0.3333333333333333 0.3333333333333333 0.3333333333333333 0.3333333333333333 0.3333333333333333</probabilities>
		</cpt>
	</nodes>
	<extensions>
		<genie version="1.0" app="GeNIe 2.2.2414.0 ACADEMIC" name="vehicle_Final" faultnameformat="nodestate">
			<node id="GV_CURBWGT">
				<name>GV_CURBWGT</name>
				<interior color="e5f6f7" />
				<outline color="000080" />
				<font color="000000" name="Arial" size="8" />
				<position>572 202 644 250</position>
			</node>
			<node id="GV_DVLAT">
				<name>GV_DVLAT</name>
				<interior color="e5f6f7" />
				<outline color="000080" />
				<font color="000000" name="Arial" size="8" />
				<position>558 257 630 305</position>
			</node>
			<node id="GV_DVLONG">
				<name>GV_DVLONG</name>
				<interior color="e5f6f7" />
				<outline color="000080" />
				<font color="000000" name="Arial" size="8" />
				<position>520 307 592 355</position>
			</node>
			<node id="GV_ENERGY">
				<name>GV_ENERGY</name>
				<interior color="e5f6f7" />
				<outline color="000080" />
				<font color="000000" name="Arial" size="8" />
				<position>461 346 533 394</position>
			</node>
			<node id="GV_LANES">
				<name>GV_LANES</name>
				<interior color="e5f6f7" />
				<outline color="000080" />
				<font color="000000" name="Arial" size="8" />
				<position>386 371 458 419</position>
			</node>
			<node id="GV_MODELYR">
				<name>GV_MODELYR</name>
				<interior color="e5f6f7" />
				<outline color="000080" />
				<font color="000000" name="Arial" size="8" />
				<position>304 380 376 428</position>
			</node>
			<node id="GV_OTVEHWGT">
				<name>GV_OTVEHWGT</name>
				<interior color="e5f6f7" />
				<outline color="000080" />
				<font color="000000" name="Arial" size="8" />
				<position>222 371 294 419</position>
			</node>
			<node id="GV_SPLIMIT">
				<name>GV_SPLIMIT</name>
				<interior color="e5f6f7" />
				<outline color="000080" />
				<font color="000000" name="Arial" size="8" />
				<position>147 346 219 394</position>
			</node>
			<node id="OA_AGE">
				<name>OA_AGE</name>
				<interior color="e5f6f7" />
				<outline color="000080" />
				<font color="000000" name="Arial" size="8" />
				<position>88 307 160 355</position>
			</node>
			<node id="OA_HEIGHT">
				<name>OA_HEIGHT</name>
				<interior color="e5f6f7" />
				<outline color="000080" />
				<font color="000000" name="Arial" size="8" />
				<position>50 257 122 305</position>
			</node>
			<node id="OA_MAIS">
				<name>OA_MAIS</name>
				<interior color="ffff80" />
				<outline color="000080" />
				<font color="000000" name="Arial" size="8" />
				<position>304 202 376 250</position>
			</node>
			<node id="OA_WEIGHT">
				<name>OA_WEIGHT</name>
				<interior color="e5f6f7" />
				<outline color="000080" />
				<font color="000000" name="Arial" size="8" />
				<position>36 202 108 250</position>
			</node>
			<node id="VE_ORIGAVTW">
				<name>VE_ORIGAVTW</name>
				<interior color="e5f6f7" />
				<outline color="000080" />
				<font color="000000" name="Arial" size="8" />
				<position>50 147 122 195</position>
			</node>
			<node id="VE_WHEELBAS">
				<name>VE_WHEELBAS</name>
				<interior color="e5f6f7" />
				<outline color="000080" />
				<font color="000000" name="Arial" size="8" />
				<position>88 97 160 145</position>
			</node>
			<node id="VE_PDOF_TR">
				<name>VE_PDOF_TR</name>
				<interior color="e5f6f7" />
				<outline color="000080" />
				<font color="000000" name="Arial" size="8" />
				<position>147 58 219 106</position>
			</node>
			<node id="GV_FOOTPRINT">
				<name>GV_FOOTPRINT</name>
				<interior color="e5f6f7" />
				<outline color="000080" />
				<font color="000000" name="Arial" size="8" />
				<position>222 33 294 81</position>
			</node>
			<node id="OA_BAGDEPLY">
				<name>OA_BAGDEPLY</name>
				<interior color="e5f6f7" />
				<outline color="000080" />
				<font color="000000" name="Arial" size="8" />
				<position>304 24 376 72</position>
			</node>
			<node id="OA_SEX">
				<name>OA_SEX</name>
				<interior color="e5f6f7" />
				<outline color="000080" />
				<font color="000000" name="Arial" size="8" />
				<position>386 33 458 81</position>
			</node>
			<node id="OA_MANUSE">
				<name>OA_MANUSE</name>
				<interior color="e5f6f7" />
				<outline color="000080" />
				<font color="000000" name="Arial" size="8" />
				<position>461 58 533 106</position>
			</node>
			<node id="GV_WGTCDTR">
				<name>GV_WGTCDTR</name>
				<interior color="e5f6f7" />
				<outline color="000080" />
				<font color="000000" name="Arial" size="8" />
				<position>520 97 592 145</position>
			</node>
			<node id="VE_GAD1">
				<name>VE_GAD1</name>
				<interior color="e5f6f7" />
				<outline color="000080" />
				<font color="000000" name="Arial" size="8" />
				<position>558 147 630 195</position>
			</node>
		</genie>
	</extensions>
</smile>
